{"learner":{"attributes":{},"feature_names":["price","stock_available","store_id_str_02","store_id_str_03","product_id_pdt_002","product_id_pdt_003","product_id_pdt_004","product_id_pdt_005","product_category_Dairy","product_category_Frozen","product_category_Household","product_category_Snack","store_location_Los Angeles","store_location_New York","weekday_Monday","weekday_Saturday","weekday_Thursday","weekday_Tuesday","weekday_Wednesday","revenue","day","month","year"],"feature_types":["float","float","float","float","float","float","float","float","float","float","float","float","float","float","float","float","float","float","float","float","float","float","float"],"gradient_booster":{"model":{"gbtree_model_param":{"num_parallel_tree":"1","num_trees":"100"},"iteration_indptr":[0,1,2,3,4,5,6,7,8,9,10,11,12,13,14,15,16,17,18,19,20,21,22,23,24,25,26,27,28,29,30,31,32,33,34,35,36,37,38,39,40,41,42,43,44,45,46,47,48,49,50,51,52,53,54,55,56,57,58,59,60,61,62,63,64,65,66,67,68,69,70,71,72,73,74,75,76,77,78,79,80,81,82,83,84,85,86,87,88,89,90,91,92,93,94,95,96,97,98,99,100],"tree_info":[0,0,0,0,0,0,0,0,0,0,0,0,0,0,0,0,0,0,0,0,0,0,0,0,0,0,0,0,0,0,0,0,0,0,0,0,0,0,0,0,0,0,0,0,0,0,0,0,0,0,0,0,0,0,0,0,0,0,0,0,0,0,0,0,0,0,0,0,0,0,0,0,0,0,0,0,0,0,0,0,0,0,0,0,0,0,0,0,0,0,0,0,0,0,0,0,0,0,0,0],"trees":[{"base_weights":[-7.6056267E-7,-1.969065E1,1.1697415E1,-5.214526E0,-3.1064087E1,5.4133134E0,2.613422E1,-2.906223E1,1.2088964E1,-3.6255918E0,-2.6653204E1,1.4529251E1,-8.435527E0,2.2539518E1,3.6592185E0,-3.4512696E0,-1.4528517E1,1.9297058E1,3.674804E0,-1.875893E1,-3.360953E0,2.6628004E1,9.13422E0,-1.8851816E1,3.8363419E0,3.2050595E0,1.4601227E1,-1.8312505E0,-1.8455731E0,6.216964E0,2.5866476E1,-4.95573E0,8.048295E0,-2.0075986E0,-4.1645837E-1,1.2656212E-2,2.7682999E1,-2.888316E0,1.5990224E1,-2.4972188E0,-1.5212927E1,6.526785E0,-4.783036E0,8.027812E0,1.7292433E0,1.6265622E-1,-4.373438E-1,9.502083E-1,3.0024993E-1,2.7327812E0,5.626562E-1,1.687495E-2,-7.560157E-1,3.8776037E-1,1.0877603E0,2.1265621E-1,2.8659246E0,4.139204E-1,-8.612501E-1,1.2358774E0,2.1592185E0,-2.3734379E-1,-1.5711311E0,5.2781183E-2,1.0982031E0,-5.1223963E-1,-1.373438E-1,9.471483E-1,1.5020828E-1],"categories":[],"categories_nodes":[],"categories_segments":[],"categories_sizes":[],"default_left":[0,0,0,0,0,0,0,0,0,0,0,0,0,0,0,0,0,0,0,0,0,0,0,0,0,0,0,0,0,0,0,0,0,0,0,0,0,0,0,0,0,0,0,0,0,0,0,0,0,0,0,0,0,0,0,0,0,0,0,0,0,0,0,0,0,0,0,0,0],"id":0,"left_children":[1,3,5,7,9,11,13,15,17,-1,19,21,23,25,-1,-1,27,29,31,33,-1,35,37,39,41,-1,43,45,-1,47,49,51,53,-1,-1,-1,55,57,59,-1,61,63,65,67,-1,-1,-1,-1,-1,-1,-1,-1,-1,-1,-1,-1,-1,-1,-1,-1,-1,-1,-1,-1,-1,-1,-1,-1,-1],"loss_changes":[7.416618E4,1.9595207E4,1.8184445E4,2.263435E4,5.68E2,1.8049375E4,1.468418E3,1.320541E3,1.8698892E3,0E0,1.566127E3,5.3702637E3,7.3584795E3,3.1561035E3,0E0,0E0,3.6512183E2,1.2999756E3,6.438141E2,3.200454E2,0E0,7.234258E2,5.074204E3,3.1051172E2,6.5734644E2,0E0,3.5651123E2,3.348489E1,0E0,4.5389282E1,1.7158838E2,8.1353775E1,8.762286E1,0E0,0E0,0E0,5.6278906E2,9.6086584E2,5.265342E2,0E0,1.0348828E2,5.554684E2,1.06427E0,7.9983154E1,0E0,0E0,0E0,0E0,0E0,0E0,0E0,0E0,0E0,0E0,0E0,0E0,0E0,0E0,0E0,0E0,0E0,0E0,0E0,0E0,0E0,0E0,0E0,0E0,0E0],"parents":[2147483647,0,0,1,1,2,2,3,3,4,4,5,5,6,6,7,7,8,8,10,10,11,11,12,12,13,13,16,16,17,17,18,18,19,19,21,21,22,22,23,23,24,24,26,26,27,27,29,29,30,30,31,31,32,32,36,36,37,37,38,38,40,40,41,41,42,42,43,43],"right_children":[2,4,6,8,10,12,14,16,18,-1,20,22,24,26,-1,-1,28,30,32,34,-1,36,38,40,42,-1,44,46,-1,48,50,52,54,-1,-1,-1,56,58,60,-1,62,64,66,68,-1,-1,-1,-1,-1,-1,-1,-1,-1,-1,-1,-1,-1,-1,-1,-1,-1,-1,-1,-1,-1,-1,-1,-1,-1],"split_conditions":[8.88E2,1.384E1,2.67524E3,3.6917E2,5.628E2,3.077E1,3.7904E3,2.9596E2,9.77E0,-3.6255918E0,2.538E1,1.813E1,1.79284E3,3.813E1,3.6592185E0,-3.4512696E0,7.09E0,5.1996E2,6.2168E2,1E0,-3.360953E0,8E0,1.44078E3,1.24032E3,4.085E1,3.2050595E0,2.93601E3,5.51E0,-1.8455731E0,6.39E0,1E0,1.039E1,5.6E1,-2.0075986E0,-4.1645837E-1,1.2656212E-2,8.8886E2,2.324E1,2.14774E3,-2.4972188E0,3.142E1,2.2113E3,4.908E1,4.631E1,1.7292433E0,1.6265622E-1,-4.373438E-1,9.502083E-1,3.0024993E-1,2.7327812E0,5.626562E-1,1.687495E-2,-7.560157E-1,3.8776037E-1,1.0877603E0,2.1265621E-1,2.8659246E0,4.139204E-1,-8.612501E-1,1.2358774E0,2.1592185E0,-2.3734379E-1,-1.5711311E0,5.2781183E-2,1.0982031E0,-5.1223963E-1,-1.373438E-1,9.471483E-1,1.5020828E-1],"split_indices":[19,0,19,19,19,0,19,19,0,0,0,0,19,0,0,0,0,19,19,6,0,1,19,19,0,0,19,0,0,0,6,0,1,0,0,0,19,0,19,0,0,19,0,0,0,0,0,0,0,0,0,0,0,0,0,0,0,0,0,0,0,0,0,0,0,0,0,0,0],"split_type":[0,0,0,0,0,0,0,0,0,0,0,0,0,0,0,0,0,0,0,0,0,0,0,0,0,0,0,0,0,0,0,0,0,0,0,0,0,0,0,0,0,0,0,0,0,0,0,0,0,0,0,0,0,0,0,0,0,0,0,0,0,0,0,0,0,0,0,0,0],"sum_hessian":[3.2E2,1.19E2,2.01E2,5.3E1,6.6E1,1.41E2,6E1,2.2E1,3.1E1,2.7E1,3.9E1,8.5E1,5.6E1,4.7E1,1.3E1,1.5E1,7E0,1.6E1,1.5E1,2E1,1.9E1,2.5E1,6E1,3E1,2.6E1,2E1,2.7E1,2E0,5E0,6E0,1E1,5E0,1E1,1.8E1,2E0,1E0,2.4E1,2.2E1,3.8E1,9E0,2.1E1,2E1,6E0,9E0,1.8E1,1E0,1E0,2E0,4E0,9E0,1E0,2E0,3E0,5E0,5E0,1E0,2.3E1,1E1,1.2E1,2.5E1,1.3E1,1E0,2E1,9E0,1.1E1,5E0,1E0,7E0,2E0],"tree_param":{"num_deleted":"0","num_feature":"23","num_nodes":"69","size_leaf_vector":"1"}},{"base_weights":[6.9334083E-3,-2.0470491E1,9.2309675E0,-7.9877095E0,-2.937203E1,1.8338119E0,2.0059753E1,-2.5664892E1,8.499619E0,-3.0446196E0,-1.7196515E0,1.7155508E1,-1.0243707E1,1.4676267E1,2.7040415E1,-3.080923E0,-1.0974896E1,1.731133E1,1.5984236E0,3.0030577E1,1.4547055E1,-1.4610789E1,4.3970985E0,2.304097E1,6.9592376E0,2.8601183E1,1.1019105E0,1.5452348E-1,-1.3319124E0,4.802166E0,2.1986377E0,4.577319E0,-6.9931453E-1,3.163873E0,8.582682E-1,6.7004185E0,2.3095337E1,-2.3686958E1,-9.93434E0,1.1524674E0,-1.1863285E0,1.709607E1,2.7213485E0,9.575983E0,8.0250636E-2,2.8997467E0,7.7619404E-1,5.7519305E-1,9.7643666E-2,1.5749868E-2,5.542002E-1,1.3212502E0,1.7095117E-1,2.9533818E0,1.6386865E0,-2.4231477E0,-6.942812E-1,-2.9911703E-1,-1.4438488E0,2.5236556E-1,-3.6668417E-1,1.8176279E0,7.436615E-1,2.9421067E-1,1.096383E0,-2.5350866E-1,3.9831933E-1],"categories":[],"categories_nodes":[],"categories_segments":[],"categories_sizes":[],"default_left":[0,0,0,0,0,0,0,0,0,0,0,0,0,0,0,0,0,0,0,0,0,0,0,0,0,0,0,0,0,0,0,0,0,0,0,0,0,0,0,0,0,0,0,0,0,0,0,0,0,0,0,0,0,0,0,0,0,0,0,0,0,0,0,0,0,0,0],"id":1,"left_children":[1,3,5,7,9,11,13,15,17,-1,-1,19,21,23,25,-1,27,29,31,33,35,37,39,41,43,45,-1,-1,-1,47,-1,49,-1,-1,-1,51,53,55,57,-1,59,61,-1,63,65,-1,-1,-1,-1,-1,-1,-1,-1,-1,-1,-1,-1,-1,-1,-1,-1,-1,-1,-1,-1,-1,-1],"loss_changes":[6.0820883E4,1.087698E4,1.7745908E4,1.2750471E4,2.3498438E2,2.478713E4,2.985375E3,1.2488486E3,1.37099E3,0E0,0E0,1.5445996E3,4.859566E3,3.260837E3,6.350508E2,0E0,2.2603143E2,4.792268E2,3.9031726E2,3.887793E1,3.2660918E3,2.2264512E3,7.3000525E2,1.5488672E2,5.2124756E2,5.570508E1,0E0,0E0,0E0,8.917763E0,0E0,4.602809E1,0E0,0E0,0E0,8.8744666E2,5.526494E2,4.998047E0,1.2077344E3,0E0,1.1048317E2,4.7485352E-1,0E0,1.6108618E2,1.0196533E2,0E0,0E0,0E0,0E0,0E0,0E0,0E0,0E0,0E0,0E0,0E0,0E0,0E0,0E0,0E0,0E0,0E0,0E0,0E0,0E0,0E0,0E0],"parents":[2147483647,0,0,1,1,2,2,3,3,4,4,5,5,6,6,7,7,8,8,11,11,12,12,13,13,14,14,16,16,17,17,18,18,19,19,20,20,21,21,22,22,23,23,24,24,25,25,29,29,31,31,35,35,36,36,37,37,38,38,40,40,41,41,43,43,44,44],"right_children":[2,4,6,8,10,12,14,16,18,-1,-1,20,22,24,26,-1,28,30,32,34,36,38,40,42,44,46,-1,-1,-1,48,-1,50,-1,-1,-1,52,54,56,58,-1,60,62,-1,64,66,-1,-1,-1,-1,-1,-1,-1,-1,-1,-1,-1,-1,-1,-1,-1,-1,-1,-1,-1,-1,-1,-1],"split_conditions":[7.6136E2,1.257E1,2.16904E3,3.6917E2,7.1996E2,2.385E1,3.09624E3,2.9596E2,7.61E0,-3.0446196E0,-1.7196515E0,1.131E1,1.79284E3,3.527E1,4.935E1,-3.080923E0,5.51E0,4.6209E2,1.121E1,9.9E1,1.2992E3,1.14912E3,2.981E1,2.40812E3,4.534E1,3E1,1.1019105E0,1.5452348E-1,-1.3319124E0,1E0,2.1986377E0,1E1,-6.9931453E-1,3.163873E0,8.582682E-1,1.427E1,1.789E1,2.7E1,3.048E1,1.1524674E0,3.604E1,3.077E1,2.7213485E0,2.43363E3,2.716E3,2.8997467E0,7.7619404E-1,5.7519305E-1,9.7643666E-2,1.5749868E-2,5.542002E-1,1.3212502E0,1.7095117E-1,2.9533818E0,1.6386865E0,-2.4231477E0,-6.942812E-1,-2.9911703E-1,-1.4438488E0,2.5236556E-1,-3.6668417E-1,1.8176279E0,7.436615E-1,2.9421067E-1,1.096383E0,-2.5350866E-1,3.9831933E-1],"split_indices":[19,0,19,19,19,0,19,19,0,0,0,0,19,0,0,0,0,19,0,1,19,19,0,19,0,20,0,0,0,2,0,1,0,0,0,0,0,20,0,0,0,0,0,19,19,0,0,0,0,0,0,0,0,0,0,0,0,0,0,0,0,0,0,0,0,0,0],"split_type":[0,0,0,0,0,0,0,0,0,0,0,0,0,0,0,0,0,0,0,0,0,0,0,0,0,0,0,0,0,0,0,0,0,0,0,0,0,0,0,0,0,0,0,0,0,0,0,0,0,0,0,0,0,0,0,0,0,0,0,0,0,0,0,0,0,0,0],"sum_hessian":[3.2E2,9.9E1,2.21E2,4.2E1,5.7E1,1.32E2,8.9E1,2E1,2.2E1,5.1E1,6E0,5.8E1,7.4E1,5.2E1,3.7E1,1.4E1,6E0,9E0,1.3E1,8E0,5E1,5.7E1,1.7E1,2.4E1,2.8E1,3.3E1,4E0,1E0,5E0,3E0,6E0,1E1,3E0,7E0,1E0,2.7E1,2.3E1,1.8E1,3.9E1,7E0,1E1,1.2E1,1.2E1,2E1,8E0,3.2E1,1E0,2E0,1E0,2E0,8E0,1.1E1,1.6E1,1E1,1.3E1,1.7E1,1E0,1.6E1,2.3E1,4E0,6E0,1E1,2E0,4E0,1.6E1,5E0,3E0],"tree_param":{"num_deleted":"0","num_feature":"23","num_nodes":"67","size_leaf_vector":"1"}},{"base_weights":[4.2376142E-2,-1.257512E1,1.234998E1,-3.905904E-2,-2.1020056E1,7.368264E0,2.2550367E1,-2.2511255E1,1.3664453E1,-2.546254E1,-1.054592E1,1.4849421E1,-2.7601156E0,1.9586695E1,3.2085602E0,-2.8391035E0,-1.0852485E1,8.13157E0,2.2712679E1,-3.0147898E0,-2.1663359E1,-3.5585651E0,-1.9409494E0,2.6848927E0,1.2130087E1,-1.1927382E1,4.2139106E0,2.6211526E0,1.1398228E1,4.2212245E-1,-1.5148565E1,1.3700874E1,1.0799448E0,2.9800894E0,1.4675992E0,-1.4683137E1,-2.7909424E0,2.874305E0,-5.6018357E0,8.569651E0,1.8774868E0,-1.2588112E1,-3.7669742E-1,6.892908E0,-1.2975757E0,6.824248E0,1.3688043E1,-3.4888098E-1,-1.6315844E0,4.3557563E-1,1.7937857E0,-4.2389408E-1,4.934116E-1,-1.5597008E0,-4.0009132E-1,4.695254E-1,9.525427E-3,-1.1163505E-1,-7.2843945E-1,1.4210343E0,3.0645445E-1,-1.429098E0,-7.627339E-1,1.2631826E-1,9.394075E-1,-3.8740495E-1,2.0537078E-1,7.2142047E-1,1.8522988E-1,7.1170187E-1,1.4947648E0],"categories":[],"categories_nodes":[],"categories_segments":[],"categories_sizes":[],"default_left":[0,0,0,0,0,0,0,0,0,0,0,0,0,0,0,0,0,0,0,0,0,0,0,0,0,0,0,0,0,0,0,0,0,0,0,0,0,0,0,0,0,0,0,0,0,0,0,0,0,0,0,0,0,0,0,0,0,0,0,0,0,0,0,0,0,0,0,0,0,0,0],"id":2,"left_children":[1,3,5,7,9,11,13,15,17,19,21,23,25,27,-1,-1,29,31,33,-1,35,37,-1,-1,39,41,43,-1,45,-1,47,49,51,-1,-1,53,-1,55,57,59,-1,61,-1,63,65,67,69,-1,-1,-1,-1,-1,-1,-1,-1,-1,-1,-1,-1,-1,-1,-1,-1,-1,-1,-1,-1,-1,-1,-1,-1],"loss_changes":[5.0003758E4,1.6831908E4,8.116756E3,2.0324225E4,4.1519336E3,8.451678E3,8.69291E2,1.4056621E3,1.8678833E3,5.2173047E2,1.7889187E3,1.7626816E3,3.1190337E3,2.0338652E3,0E0,0E0,7.115242E2,1.0455654E3,4.171294E2,0E0,1.3341582E3,2.5269504E2,0E0,0E0,1.1166558E3,6.580908E1,4.2237125E2,0E0,1.26534424E2,0E0,5.195862E1,5.157937E2,2.8741403E2,0E0,0E0,1.4260352E2,0E0,2.4855309E1,9.7527374E1,1.1053984E3,0E0,5.1500977E1,0E0,2.5567035E2,9.430111E1,4.086731E0,1.217041E0,0E0,0E0,0E0,0E0,0E0,0E0,0E0,0E0,0E0,0E0,0E0,0E0,0E0,0E0,0E0,0E0,0E0,0E0,0E0,0E0,0E0,0E0,0E0,0E0],"parents":[2147483647,0,0,1,1,2,2,3,3,4,4,5,5,6,6,7,7,8,8,9,9,10,10,11,11,12,12,13,13,16,16,17,17,18,18,20,20,21,21,24,24,25,25,26,26,28,28,30,30,31,31,32,32,35,35,37,37,38,38,39,39,41,41,43,43,44,44,45,45,46,46],"right_children":[2,4,6,8,10,12,14,16,18,20,22,24,26,28,-1,-1,30,32,34,-1,36,38,-1,-1,40,42,44,-1,46,-1,48,50,52,-1,-1,54,-1,56,58,60,-1,62,-1,64,66,68,70,-1,-1,-1,-1,-1,-1,-1,-1,-1,-1,-1,-1,-1,-1,-1,-1,-1,-1,-1,-1,-1,-1,-1,-1],"split_conditions":[1.26429E3,1.427E1,2.81882E3,3.9614E2,8.88E2,3.338E1,4.1629E3,2.9596E2,8.086E2,5.628E2,2.598E1,1.789E1,2.00408E3,4.036E1,3.2085602E0,-2.8391035E0,5.57E0,9.79E0,1.131E1,-3.0147898E0,2.538E1,1.636E1,-1.9409494E0,2.6848927E0,2.14774E3,1.79284E3,4.049E1,2.6211526E0,3.26164E3,4.2212245E-1,7.09E0,5.1996E2,6.2168E2,2.9800894E0,1.4675992E0,1E0,-2.7909424E0,1.564E1,1.3E1,2.385E1,1.8774868E0,6.5E1,-3.7669742E-1,2.2113E3,2.53385E3,1E0,3.3E1,-3.4888098E-1,-1.6315844E0,4.3557563E-1,1.7937857E0,-4.2389408E-1,4.934116E-1,-1.5597008E0,-4.0009132E-1,4.695254E-1,9.525427E-3,-1.1163505E-1,-7.2843945E-1,1.4210343E0,3.0645445E-1,-1.429098E0,-7.627339E-1,1.2631826E-1,9.394075E-1,-3.8740495E-1,2.0537078E-1,7.2142047E-1,1.8522988E-1,7.1170187E-1,1.4947648E0],"split_indices":[19,0,19,19,19,0,19,19,19,19,0,0,19,0,0,0,0,0,0,0,0,0,0,0,19,19,0,0,19,0,0,19,19,0,0,6,0,0,20,0,0,1,0,19,19,3,1,0,0,0,0,0,0,0,0,0,0,0,0,0,0,0,0,0,0,0,0,0,0,0,0],"split_type":[0,0,0,0,0,0,0,0,0,0,0,0,0,0,0,0,0,0,0,0,0,0,0,0,0,0,0,0,0,0,0,0,0,0,0,0,0,0,0,0,0,0,0,0,0,0,0,0,0,0,0,0,0,0,0,0,0,0,0,0,0,0,0,0,0,0,0,0,0,0,0],"sum_hessian":[3.2E2,1.58E2,1.62E2,6.4E1,9.4E1,1.1E2,5.2E1,2.4E1,4E1,6.5E1,2.9E1,6.3E1,4.7E1,4.2E1,1E1,1.5E1,9E0,2.6E1,1.4E1,2.6E1,3.9E1,1.7E1,1.2E1,1E1,5.3E1,2E1,2.7E1,2.2E1,2E1,2E0,7E0,1.4E1,1.2E1,6E0,8E0,2E1,1.9E1,4E0,1.3E1,3.6E1,1.7E1,1.8E1,2E0,1.8E1,9E0,8E0,1.2E1,1E0,6E0,5E0,9E0,5E0,7E0,1.8E1,2E0,2E0,2E0,4E0,9E0,1.7E1,1.9E1,1.2E1,6E0,6E0,1.2E1,5E0,4E0,7E0,1E0,3E0,9E0],"tree_param":{"num_deleted":"0","num_feature":"23","num_nodes":"71","size_leaf_vector":"1"}},{"base_weights":[5.62988E-2,-1.4581161E1,8.75154E0,-3.0703647E0,-2.2481987E1,4.057902E0,1.9534246E1,-2.1101154E1,9.653534E0,-2.4938728E1,-1.4970359E1,1.0559457E1,-7.0590377E0,1.6713776E1,2.780913E1,-2.9222739E0,-1.3855355E1,1.474895E1,2.776705E0,-2.1246119E1,-2.9008374E0,-4.288715E0,-1.924187E0,2.045863E1,6.649778E0,-1.4554974E1,1.9186095E0,2.4133482E0,1.0552076E1,2.957742E0,1.1466264E0,1.2569122E-1,-1.5219453E1,4.7517505E0,1.976999E1,-3.8856964E0,6.9097834E0,-2.6176536E0,-1.4987819E1,-4.9996853E-1,-7.0052826E-1,1.2878046E1,2.5494943E0,-5.9881E0,1.0484215E1,-1.9784864E0,-1.1620498E1,3.9620836E0,-3.90205E0,6.086578E0,1.2346966E1,-3.3143693E-1,-1.6000427E0,7.658102E-1,2.0575897E-1,2.091274E0,4.1712418E-1,4.2959344E-2,-6.15074E-1,3.2541275E-1,9.1834825E-1,-6.423304E-1,-1.5752513E0,3.671341E-2,-1.5506382E-1,2.1865613E0,5.65106E-1,1.8658957E-2,-6.8835264E-1,5.8726734E-1,1.4365857E0,-1.3101753E0,-7.57574E-1,1.0916858E-2,6.754279E-1,-4.4318476E-1,-1.718371E-1,7.14942E-1,1.2234739E-1,1.5110048E0,9.475997E-1],"categories":[],"categories_nodes":[],"categories_segments":[],"categories_sizes":[],"default_left":[0,0,0,0,0,0,0,0,0,0,0,0,0,0,0,0,0,0,0,0,0,0,0,0,0,0,0,0,0,0,0,0,0,0,0,0,0,0,0,0,0,0,0,0,0,0,0,0,0,0,0,0,0,0,0,0,0,0,0,0,0,0,0,0,0,0,0,0,0,0,0,0,0,0,0,0,0,0,0,0,0],"id":3,"left_children":[1,3,5,7,9,11,13,15,17,19,21,23,25,27,29,-1,31,33,35,37,-1,39,-1,41,43,45,47,-1,49,-1,-1,-1,51,53,55,57,59,-1,61,63,-1,65,-1,67,69,-1,71,73,75,77,79,-1,-1,-1,-1,-1,-1,-1,-1,-1,-1,-1,-1,-1,-1,-1,-1,-1,-1,-1,-1,-1,-1,-1,-1,-1,-1,-1,-1,-1,-1],"loss_changes":[4.098328E4,1.0844346E4,1.0143977E4,1.1674798E4,9.3690234E2,1.0337929E4,9.588887E2,8.309033E2,1.0102556E3,1.651211E2,8.300117E2,3.3471865E3,3.5946067E3,1.9398057E3,6.544336E1,0E0,2.871194E2,7.5939526E2,4.1235645E2,5.6420703E2,0E0,6.854428E1,0E0,6.261299E2,3.2610835E3,2.1515186E2,3.1281943E2,0E0,1.4927124E2,0E0,0E0,0E0,5.8539307E1,3.9054016E1,1.08848145E2,6.128823E1,4.4922516E1,0E0,3.6049805E0,4.2134457E0,0E0,6.5587244E2,0E0,8.974805E1,8.2855225E2,0E0,2.65625E1,2.0366641E2,4.827881E-1,4.2940002E1,7.5388184E0,0E0,0E0,0E0,0E0,0E0,0E0,0E0,0E0,0E0,0E0,0E0,0E0,0E0,0E0,0E0,0E0,0E0,0E0,0E0,0E0,0E0,0E0,0E0,0E0,0E0,0E0,0E0,0E0,0E0,0E0],"parents":[2147483647,0,0,1,1,2,2,3,3,4,4,5,5,6,6,7,7,8,8,9,9,10,10,11,11,12,12,13,13,14,14,16,16,17,17,18,18,19,19,21,21,23,23,24,24,25,25,26,26,28,28,32,32,33,33,34,34,35,35,36,36,38,38,39,39,41,41,43,43,44,44,46,46,47,47,48,48,49,49,50,50],"right_children":[2,4,6,8,10,12,14,16,18,20,22,24,26,28,30,-1,32,34,36,38,-1,40,-1,42,44,46,48,-1,50,-1,-1,-1,52,54,56,58,60,-1,62,64,-1,66,-1,68,70,-1,72,74,76,78,80,-1,-1,-1,-1,-1,-1,-1,-1,-1,-1,-1,-1,-1,-1,-1,-1,-1,-1,-1,-1,-1,-1,-1,-1,-1,-1,-1,-1,-1,-1],"split_conditions":[8.88E2,1.285E1,2.67524E3,3.6917E2,7.1996E2,3.164E1,3.7904E3,2.048E2,9.77E0,2.359E1,1.822E1,1.789E1,1.79284E3,3.813E1,2.8E1,-2.9222739E0,5.51E0,5.1996E2,6.2168E2,5.0004E2,-2.9008374E0,1.564E1,-1.924187E0,1.10922E3,1.26429E3,1.24032E3,4.085E1,2.4133482E0,2.93601E3,2.957742E0,1.1466264E0,1.2569122E-1,2E0,6.39E0,1E0,1.039E1,6.887E2,-2.6176536E0,1.468E1,1.384E1,-7.0052826E-1,1.319E1,2.5494943E0,8E0,1.79284E3,-1.9784864E0,6.5E1,2.2113E3,2.1E1,4.631E1,4.244E1,-3.3143693E-1,-1.6000427E0,7.658102E-1,2.0575897E-1,2.091274E0,4.1712418E-1,4.2959344E-2,-6.15074E-1,3.2541275E-1,9.1834825E-1,-6.423304E-1,-1.5752513E0,3.671341E-2,-1.5506382E-1,2.1865613E0,5.65106E-1,1.8658957E-2,-6.8835264E-1,5.8726734E-1,1.4365857E0,-1.3101753E0,-7.57574E-1,1.0916858E-2,6.754279E-1,-4.4318476E-1,-1.718371E-1,7.14942E-1,1.2234739E-1,1.5110048E0,9.475997E-1],"split_indices":[19,0,19,19,19,0,19,19,0,0,0,0,19,0,20,0,0,19,19,19,0,0,0,19,19,19,0,0,19,0,0,0,21,0,6,0,19,0,0,0,0,0,0,20,19,0,1,19,20,0,0,0,0,0,0,0,0,0,0,0,0,0,0,0,0,0,0,0,0,0,0,0,0,0,0,0,0,0,0,0,0],"split_type":[0,0,0,0,0,0,0,0,0,0,0,0,0,0,0,0,0,0,0,0,0,0,0,0,0,0,0,0,0,0,0,0,0,0,0,0,0,0,0,0,0,0,0,0,0,0,0,0,0,0,0,0,0,0,0,0,0,0,0,0,0,0,0,0,0,0,0,0,0,0,0,0,0,0,0,0,0,0,0,0,0],"sum_hessian":[3.2E2,1.19E2,2.01E2,4.9E1,7E1,1.41E2,6E1,2E1,2.9E1,5.1E1,1.9E1,8.9E1,5.2E1,4.7E1,1.3E1,8E0,1.2E1,1.6E1,1.3E1,3E1,2.1E1,6E0,1.3E1,2.4E1,6.5E1,2.8E1,2.4E1,2E1,2.7E1,1.1E1,2E0,1E0,1.1E1,6E0,1E1,5E0,8E0,1.5E1,1.5E1,3E0,3E0,1.1E1,1.3E1,1.5E1,5E1,8E0,2E1,1.8E1,6E0,9E0,1.8E1,1E0,1E1,2E0,4E0,9E0,1E0,2E0,3E0,4E0,4E0,2E0,1.3E1,2E0,1E0,4E0,7E0,2E0,1.3E1,2.4E1,2.6E1,1.3E1,7E0,8E0,1E1,4E0,2E0,7E0,2E0,7E0,1.1E1],"tree_param":{"num_deleted":"0","num_feature":"23","num_nodes":"81","size_leaf_vector":"1"}},{"base_weights":[5.5150375E-2,-1.5188049E1,6.9212084E0,-5.9541507E0,-2.1772009E1,1.2890604E0,1.4865666E1,-1.9216185E1,6.4135385E0,-1.8519308E1,-2.5324802E0,1.3107725E1,-8.280669E0,1.0876685E1,2.0247992E1,-2.308531E1,-8.18003E0,1.3557615E1,8.525165E-1,-2.4911067E0,-1.3900571E0,2.3422306E0,1.103049E1,-1.34938135E1,-1.9040087E0,1.742076E1,4.8425975E0,2.1380562E1,8.4969085E-1,-2.7521641E0,-1.5763315E0,1.194067E-1,-9.9413913E-1,3.872508E0,1.715516E0,3.153906E0,-5.689434E0,5.7276254E0,1.896355E1,-1.8967863E0,-9.816715E0,1.6694169E0,-1.0647172E1,1.3136016E1,2.069504E0,6.63804E0,-8.432812E-2,1.8152521E1,2.6479876E0,4.758713E-1,6.0694695E-2,7.79027E-2,3.9471075E-1,-6.5017194E-1,-1.6262893E-1,7.4867636E-1,-1.6245477E-1,2.4066162E0,1.3556294E0,-5.4322064E-1,-1.1463598E0,4.7897157E-1,-1.5792985E-1,-1.1673287E0,-4.3618104E-1,1.3937454E0,5.551593E-1,1.3288428E-1,8.1214017E-1,-2.0139675E-1,2.8312132E-1,2.108424E0,1.0923632E0],"categories":[],"categories_nodes":[],"categories_segments":[],"categories_sizes":[],"default_left":[0,0,0,0,0,0,0,0,0,0,0,0,0,0,0,0,0,0,0,0,0,0,0,0,0,0,0,0,0,0,0,0,0,0,0,0,0,0,0,0,0,0,0,0,0,0,0,0,0,0,0,0,0,0,0,0,0,0,0,0,0,0,0,0,0,0,0,0,0,0,0,0,0],"id":4,"left_children":[1,3,5,7,9,11,13,15,17,19,-1,21,23,25,27,29,31,33,35,-1,-1,-1,37,39,41,43,45,47,-1,-1,-1,-1,-1,49,-1,51,53,55,57,-1,59,61,63,65,-1,67,69,71,-1,-1,-1,-1,-1,-1,-1,-1,-1,-1,-1,-1,-1,-1,-1,-1,-1,-1,-1,-1,-1,-1,-1,-1,-1],"loss_changes":[3.3701203E4,5.9499277E3,9.914087E3,7.1761343E3,2.0125977E2,1.4924827E4,1.7550078E3,7.078672E2,9.021943E2,6.5746484E2,0E0,1.0057627E3,2.4010063E3,2.0874521E3,3.240713E2,5.3409668E1,1.2744882E2,2.8199255E2,2.2872202E2,0E0,0E0,0E0,2.0368491E3,6.189424E2,1.0800382E3,9.291553E1,2.6594012E2,7.8990234E1,0E0,0E0,0E0,0E0,0E0,8.687538E0,0E0,1.7646431E1,2.6280518E0,4.260343E2,2.255752E2,0E0,1.2546753E2,2.6098843E2,1.3578247E1,7.7229004E0,0E0,1.6246808E2,5.6335457E1,2.783169E2,0E0,0E0,0E0,0E0,0E0,0E0,0E0,0E0,0E0,0E0,0E0,0E0,0E0,0E0,0E0,0E0,0E0,0E0,0E0,0E0,0E0,0E0,0E0,0E0,0E0],"parents":[2147483647,0,0,1,1,2,2,3,3,4,4,5,5,6,6,7,7,8,8,9,9,11,11,12,12,13,13,14,14,15,15,16,16,17,17,18,18,22,22,23,23,24,24,25,25,26,26,27,27,33,33,35,35,36,36,37,37,38,38,40,40,41,41,42,42,43,43,45,45,46,46,47,47],"right_children":[2,4,6,8,10,12,14,16,18,20,-1,22,24,26,28,30,32,34,36,-1,-1,-1,38,40,42,44,46,48,-1,-1,-1,-1,-1,50,-1,52,54,56,58,-1,60,62,64,66,-1,68,70,72,-1,-1,-1,-1,-1,-1,-1,-1,-1,-1,-1,-1,-1,-1,-1,-1,-1,-1,-1,-1,-1,-1,-1,-1,-1],"split_conditions":[7.6136E2,1.257E1,2.15074E3,3.6917E2,2.359E1,2.385E1,3.09624E3,2.9596E2,7.61E0,3.9088E2,-2.5324802E0,1.131E1,1.50084E3,3.527E1,4.935E1,1.8466E2,5.51E0,4.6209E2,1.121E1,-2.4911067E0,-1.3900571E0,2.3422306E0,1.34045E3,1.05493E3,3.865E1,2.40812E3,4.534E1,4.1629E3,8.4969085E-1,-2.7521641E0,-1.5763315E0,1.194067E-1,-9.9413913E-1,1E0,1.715516E0,5.628E2,1.17E1,1.934E1,1.789E1,-1.8967863E0,2.598E1,2.994E1,1E0,3.077E1,2.069504E0,2.43363E3,2.716E3,4.143E1,2.6479876E0,4.758713E-1,6.0694695E-2,7.79027E-2,3.9471075E-1,-6.5017194E-1,-1.6262893E-1,7.4867636E-1,-1.6245477E-1,2.4066162E0,1.3556294E0,-5.4322064E-1,-1.1463598E0,4.7897157E-1,-1.5792985E-1,-1.1673287E0,-4.3618104E-1,1.3937454E0,5.551593E-1,1.3288428E-1,8.1214017E-1,-2.0139675E-1,2.8312132E-1,2.108424E0,1.0923632E0],"split_indices":[19,0,19,19,0,0,19,19,0,19,0,0,19,0,0,19,0,19,0,0,0,0,19,19,0,19,0,19,0,0,0,0,0,2,0,19,0,0,0,0,0,0,7,0,0,19,19,0,0,0,0,0,0,0,0,0,0,0,0,0,0,0,0,0,0,0,0,0,0,0,0,0,0],"split_type":[0,0,0,0,0,0,0,0,0,0,0,0,0,0,0,0,0,0,0,0,0,0,0,0,0,0,0,0,0,0,0,0,0,0,0,0,0,0,0,0,0,0,0,0,0,0,0,0,0,0,0,0,0,0,0,0,0,0,0,0,0,0,0,0,0,0,0,0,0,0,0,0,0],"sum_hessian":[3.2E2,9.9E1,2.21E2,4.2E1,5.7E1,1.3E2,9.1E1,2E1,2.2E1,3.3E1,2.4E1,5.8E1,7.2E1,5.4E1,3.7E1,1.4E1,6E0,9E0,1.3E1,1.2E1,2.1E1,8E0,5E1,3.9E1,3.3E1,2.5E1,2.9E1,3.3E1,4E0,7E0,7E0,1E0,5E0,3E0,6E0,1E1,3E0,3.1E1,1.9E1,1.4E1,2.5E1,2.4E1,9E0,1.3E1,1.2E1,2.1E1,8E0,2.3E1,1E1,2E0,1E0,3E0,7E0,2E0,1E0,2.5E1,6E0,8E0,1.1E1,8E0,1.7E1,1.2E1,1.2E1,7E0,2E0,1.1E1,2E0,5E0,1.6E1,5E0,3E0,1.5E1,8E0],"tree_param":{"num_deleted":"0","num_feature":"23","num_nodes":"73","size_leaf_vector":"1"}},{"base_weights":[6.1661825E-2,-1.2009866E1,7.232561E0,-2.5609252E0,-1.8494898E1,3.3547347E0,1.6141066E1,-1.7542337E1,8.011428E0,-2.0514849E1,-1.2318277E1,9.364049E0,-5.0140624E0,1.3768305E1,2.3123314E1,-2.51135E0,-1.1962936E1,1.2344791E1,2.1772423E0,-1.7506052E1,-2.3822024E0,-4.007482E0,-1.5593799E0,1.9116404E1,6.5624366E0,-1.16270275E1,2.4559014E0,1.9905443E0,8.673726E0,2.44838E0,9.973602E-1,1.1343632E-1,-1.305768E1,4.0034056E0,1.6530691E1,-3.4274197E0,5.6717677E0,-2.3909125E0,-1.3799834E1,-1.5645854E-1,-5.5166E-1,1.04310416E-1,2.011818E1,-4.2982435E0,1.0123819E1,-7.7980747E0,-1.4546804E1,5.3880363E0,-1.5673444E0,1.160003E0,6.4035563E0,-1.4191188E0,-4.5489272E-1,6.4170974E-1,1.754509E-1,1.7430696E0,3.7653238E-1,2.4341457E-2,-5.323691E-1,2.678029E-1,7.5311536E-1,-1.4118751E0,-3.551285E-1,-3.673439E-2,1.326561E-2,1.0229939E0,2.3385785E0,-6.492329E-3,-5.200746E-1,4.759573E-1,1.1185249E0,-9.087316E-1,-4.1347882E-1,-1.6227607E0,-8.760735E-1,8.7977655E-2,7.767107E-1,4.492166E-2,-3.359999E-1,3.4501377E-1,8.4212774E-1],"categories":[],"categories_nodes":[],"categories_segments":[],"categories_sizes":[],"default_left":[0,0,0,0,0,0,0,0,0,0,0,0,0,0,0,0,0,0,0,0,0,0,0,0,0,0,0,0,0,0,0,0,0,0,0,0,0,0,0,0,0,0,0,0,0,0,0,0,0,0,0,0,0,0,0,0,0,0,0,0,0,0,0,0,0,0,0,0,0,0,0,0,0,0,0,0,0,0,0,0,0],"id":5,"left_children":[1,3,5,7,9,11,13,15,17,19,21,23,25,27,29,-1,31,33,35,37,-1,39,-1,41,43,45,47,-1,49,-1,-1,-1,51,53,55,57,59,-1,61,63,-1,-1,65,67,69,71,73,75,77,-1,79,-1,-1,-1,-1,-1,-1,-1,-1,-1,-1,-1,-1,-1,-1,-1,-1,-1,-1,-1,-1,-1,-1,-1,-1,-1,-1,-1,-1,-1,-1],"loss_changes":[2.7873814E4,7.305838E3,6.9240703E3,8.0599785E3,6.3311914E2,7.188235E3,6.9223047E2,5.866621E2,7.315718E2,1.0040234E2,4.819519E2,2.1423022E3,2.9924712E3,1.3281201E3,6.2680664E0,0E0,2.1554651E2,5.273965E2,2.9363843E2,4.0572363E2,0E0,3.9818428E1,0E0,3.049121E2,2.5963308E3,2.4431299E2,3.5054913E2,0E0,1.11728516E2,0E0,0E0,0E0,6.0826904E1,2.6738136E1,6.074536E1,4.3061234E1,2.9929993E1,0E0,2.1766113E1,2.3164058E-1,0E0,0E0,3.1004883E2,6.461224E1,2.3145166E2,3.7991577E1,2.316333E1,1.7549966E2,4.850433E1,0E0,7.821057E1,0E0,0E0,0E0,0E0,0E0,0E0,0E0,0E0,0E0,0E0,0E0,0E0,0E0,0E0,0E0,0E0,0E0,0E0,0E0,0E0,0E0,0E0,0E0,0E0,0E0,0E0,0E0,0E0,0E0,0E0],"parents":[2147483647,0,0,1,1,2,2,3,3,4,4,5,5,6,6,7,7,8,8,9,9,10,10,11,11,12,12,13,13,14,14,16,16,17,17,18,18,19,19,21,21,23,23,24,24,25,25,26,26,28,28,32,32,33,33,34,34,35,35,36,36,38,38,39,39,42,42,43,43,44,44,45,45,46,46,47,47,48,48,50,50],"right_children":[2,4,6,8,10,12,14,16,18,20,22,24,26,28,30,-1,32,34,36,38,-1,40,-1,42,44,46,48,-1,50,-1,-1,-1,52,54,56,58,60,-1,62,64,-1,-1,66,68,70,72,74,76,78,-1,80,-1,-1,-1,-1,-1,-1,-1,-1,-1,-1,-1,-1,-1,-1,-1,-1,-1,-1,-1,-1,-1,-1,-1,-1,-1,-1,-1,-1,-1,-1],"split_conditions":[8.88E2,1.285E1,2.67524E3,3.6917E2,7.1996E2,3.037E1,3.7904E3,1.8466E2,9.77E0,2.359E1,1.822E1,1.593E1,1.79284E3,3.813E1,2.8E1,-2.51135E0,5.51E0,5.1996E2,6.2168E2,3.2383E2,-2.3822024E0,1.384E1,-1.5593799E0,8.8886E2,1.26429E3,3.686E1,3.801E1,1.9905443E0,4.244E1,2.44838E0,9.973602E-1,1.1343632E-1,1E0,6.39E0,1E0,1.039E1,6.887E2,-2.3909125E0,3E1,1.328E1,-5.5166E-1,1.04310416E-1,5E0,8E0,1.5E1,1.45976E3,1.63228E3,2.15074E3,4.085E1,1.160003E0,3.09624E3,-1.4191188E0,-4.5489272E-1,6.4170974E-1,1.754509E-1,1.7430696E0,3.7653238E-1,2.4341457E-2,-5.323691E-1,2.678029E-1,7.5311536E-1,-1.4118751E0,-3.551285E-1,-3.673439E-2,1.326561E-2,1.0229939E0,2.3385785E0,-6.492329E-3,-5.200746E-1,4.759573E-1,1.1185249E0,-9.087316E-1,-4.1347882E-1,-1.6227607E0,-8.760735E-1,8.7977655E-2,7.767107E-1,4.492166E-2,-3.359999E-1,3.4501377E-1,8.4212774E-1],"split_indices":[19,0,19,19,19,0,19,19,0,0,0,0,19,0,20,0,0,19,19,19,0,0,0,19,19,0,0,0,0,0,0,0,16,0,6,0,19,0,20,0,0,0,20,20,1,19,19,19,0,0,19,0,0,0,0,0,0,0,0,0,0,0,0,0,0,0,0,0,0,0,0,0,0,0,0,0,0,0,0,0,0],"split_type":[0,0,0,0,0,0,0,0,0,0,0,0,0,0,0,0,0,0,0,0,0,0,0,0,0,0,0,0,0,0,0,0,0,0,0,0,0,0,0,0,0,0,0,0,0,0,0,0,0,0,0,0,0,0,0,0,0,0,0,0,0,0,0,0,0,0,0,0,0,0,0,0,0,0,0,0,0,0,0,0,0],"sum_hessian":[3.2E2,1.19E2,2.01E2,4.9E1,7E1,1.41E2,6E1,2E1,2.9E1,5.1E1,1.9E1,8.2E1,5.9E1,4.7E1,1.3E1,7E0,1.3E1,1.6E1,1.3E1,3E1,2.1E1,6E0,1.3E1,1.7E1,6.5E1,3.1E1,2.8E1,2E1,2.7E1,1.1E1,2E0,1E0,1.2E1,6E0,1E1,5E0,8E0,9E0,2.1E1,2E0,4E0,1E0,1.6E1,1.6E1,4.9E1,1.5E1,1.6E1,1.6E1,1.2E1,1E1,1.7E1,1E1,2E0,2E0,4E0,9E0,1E0,2E0,3E0,4E0,4E0,2E1,1E0,1E0,1E0,5E0,1.1E1,3E0,1.3E1,9E0,4E1,1E1,5E0,1.1E1,5E0,6E0,1E1,6E0,6E0,8E0,9E0],"tree_param":{"num_deleted":"0","num_feature":"23","num_nodes":"81","size_leaf_vector":"1"}},{"base_weights":[5.4164745E-2,-8.498466E0,8.396583E0,-6.5431306E-3,-1.437047E1,4.950993E0,1.5454391E1,-1.6454773E1,8.591544E0,-1.8817177E1,-9.523398E0,1.00864725E1,-1.9994596E0,1.31070795E1,2.1057107E0,-2.3137861E1,-1.1347935E1,4.4742327E0,1.6253397E1,-1.5895043E1,-2.1548104E0,-4.7659745E0,-1.518659E1,1.8632593E1,8.15881E0,-7.9232903E0,2.9014194E0,1.891421E0,8.447567E0,-2.438137E0,-6.5948963E-1,1.0776444E-1,-1.231245E1,7.9706235E0,-3.3156114E0,2.1693678E0,1.0216134E1,-1.9911054E0,-1.1354831E1,7.357216E-1,-6.049802E0,-1.1836662E0,-1.8337978E0,9.0296745E-1,2.1104982E0,4.2856913E0,1.1602217E1,-8.504318E0,-3.1825837E-1,5.3630075E0,-6.2248296E-1,1.1203787E0,6.3692207E0,-1.330311E0,-4.2456666E-1,1.1392094E0,4.45518E-1,-7.582602E-1,7.928162E-2,4.300789E-1,1.1291834E0,-5.783288E-1,-1.2265776E0,-1.24437906E-1,3.1306154E-1,-8.2193416E-1,-2.6244196E-1,9.058983E-1,-1.5516214E-1,1.2861371E0,5.987414E-1,-5.59138E-1,-1.0114511E0,1.7852516E-1,6.8269646E-1,-2.3631673E-1,1.5120627E-1,3.6105603E-1,7.6633614E-1],"categories":[],"categories_nodes":[],"categories_segments":[],"categories_sizes":[],"default_left":[0,0,0,0,0,0,0,0,0,0,0,0,0,0,0,0,0,0,0,0,0,0,0,0,0,0,0,0,0,0,0,0,0,0,0,0,0,0,0,0,0,0,0,0,0,0,0,0,0,0,0,0,0,0,0,0,0,0,0,0,0,0,0,0,0,0,0,0,0,0,0,0,0,0,0,0,0,0,0],"id":6,"left_children":[1,3,5,7,9,11,13,15,17,19,21,23,25,27,-1,29,31,33,35,37,-1,39,41,43,45,47,49,-1,51,-1,-1,-1,53,55,57,-1,59,-1,61,63,65,-1,-1,-1,-1,67,69,71,-1,73,75,-1,77,-1,-1,-1,-1,-1,-1,-1,-1,-1,-1,-1,-1,-1,-1,-1,-1,-1,-1,-1,-1,-1,-1,-1,-1,-1,-1],"loss_changes":[2.2974584E4,7.928376E3,3.8873691E3,9.47531E3,1.8468281E3,3.9821921E3,4.2102246E2,5.2241064E2,1.3153127E3,4.053711E1,1.1939048E3,9.0231885E2,1.4165237E3,9.2255664E2,0E0,2.434961E1,1.9303845E2,8.435176E2,2.7104028E2,2.6621924E2,0E0,1.9515814E2,4.6347656E0,7.0592285E1,6.704595E2,3.353296E1,2.3754704E2,0E0,6.6121704E1,0E0,0E0,0E0,5.539966E1,2.0183398E2,1.8131781E2,0E0,8.704468E0,0E0,5.1939697E0,3.2348454E1,1.4192206E2,0E0,0E0,0E0,0E0,7.663624E2,1.2095068E2,3.2563477E1,0E0,7.161508E1,4.8160103E1,0E0,2.9452515E1,0E0,0E0,0E0,0E0,0E0,0E0,0E0,0E0,0E0,0E0,0E0,0E0,0E0,0E0,0E0,0E0,0E0,0E0,0E0,0E0,0E0,0E0,0E0,0E0,0E0,0E0],"parents":[2147483647,0,0,1,1,2,2,3,3,4,4,5,5,6,6,7,7,8,8,9,9,10,10,11,11,12,12,13,13,15,15,16,16,17,17,18,18,19,19,21,21,22,22,23,23,24,24,25,25,26,26,28,28,32,32,33,33,34,34,36,36,38,38,39,39,40,40,45,45,46,46,47,47,49,49,50,50,52,52],"right_children":[2,4,6,8,10,12,14,16,18,20,22,24,26,28,-1,30,32,34,36,38,-1,40,42,44,46,48,50,-1,52,-1,-1,-1,54,56,58,-1,60,-1,62,64,66,-1,-1,-1,-1,68,70,72,-1,74,76,-1,78,-1,-1,-1,-1,-1,-1,-1,-1,-1,-1,-1,-1,-1,-1,-1,-1,-1,-1,-1,-1,-1,-1,-1,-1,-1,-1],"split_conditions":[1.26429E3,1.443E1,2.81882E3,3.6917E2,7.1996E2,3.338E1,3.7904E3,1.848E2,8.086E2,2.359E1,2.598E1,1.789E1,2.0154E3,3.813E1,2.1057107E0,9.6E1,5.51E0,1.118E1,1.131E1,5.0004E2,-2.1548104E0,1.636E1,3.801E1,1.3409E3,1.80774E3,1.79284E3,4.036E1,1.891421E0,4.244E1,-2.438137E0,-6.5948963E-1,1.0776444E-1,1E0,7.61E0,5.7664E2,2.1693678E0,3E0,-1.9911054E0,1.637E1,2.7E1,1.11826E3,-1.1836662E0,-1.8337978E0,9.0296745E-1,2.1104982E0,2.362E1,7.9E1,3.686E1,-3.1825837E-1,2.2113E3,2.53385E3,1.1203787E0,3.09624E3,-1.330311E0,-4.2456666E-1,1.1392094E0,4.45518E-1,-7.582602E-1,7.928162E-2,4.300789E-1,1.1291834E0,-5.783288E-1,-1.2265776E0,-1.24437906E-1,3.1306154E-1,-8.2193416E-1,-2.6244196E-1,9.058983E-1,-1.5516214E-1,1.2861371E0,5.987414E-1,-5.59138E-1,-1.0114511E0,1.7852516E-1,6.8269646E-1,-2.3631673E-1,1.5120627E-1,3.6105603E-1,7.6633614E-1],"split_indices":[19,0,19,19,19,0,19,19,19,0,0,0,19,0,0,1,0,0,0,19,0,0,0,19,19,19,0,0,0,0,0,0,16,0,19,0,21,0,0,1,19,0,0,0,0,0,1,0,0,19,19,0,19,0,0,0,0,0,0,0,0,0,0,0,0,0,0,0,0,0,0,0,0,0,0,0,0,0,0],"split_type":[0,0,0,0,0,0,0,0,0,0,0,0,0,0,0,0,0,0,0,0,0,0,0,0,0,0,0,0,0,0,0,0,0,0,0,0,0,0,0,0,0,0,0,0,0,0,0,0,0,0,0,0,0,0,0,0,0,0,0,0,0,0,0,0,0,0,0,0,0,0,0,0,0,0,0,0,0,0,0],"sum_hessian":[3.2E2,1.58E2,1.62E2,6.5E1,9.3E1,1.1E2,5.2E1,2.2E1,4.3E1,4.7E1,4.6E1,6.3E1,4.7E1,3.9E1,1.3E1,8E0,1.4E1,2.9E1,1.4E1,2.6E1,2.1E1,2.6E1,2E1,1E1,5.3E1,2.1E1,2.6E1,1.6E1,2.3E1,7E0,1E0,1E0,1.3E1,2E1,9E0,6E0,8E0,1.2E1,1.4E1,5E0,2.1E1,1.2E1,8E0,3E0,7E0,2.6E1,2.7E1,1.8E1,3E0,1.5E1,1.1E1,8E0,1.5E1,1.1E1,2E0,9E0,1.1E1,4E0,5E0,2E0,6E0,3E0,1.1E1,3E0,2E0,1.2E1,9E0,1.4E1,1.2E1,2.1E1,6E0,8E0,1E1,5E0,1E1,6E0,5E0,6E0,9E0],"tree_param":{"num_deleted":"0","num_feature":"23","num_nodes":"79","size_leaf_vector":"1"}},{"base_weights":[5.1262103E-2,-9.911541E0,5.9695053E0,-2.1300812E0,-1.5251843E1,2.76888E0,1.3322281E1,-1.4594731E1,6.6661763E0,-1.9619823E1,-1.3024895E1,7.7607765E0,-4.182725E0,1.1359039E1,1.9101803E1,-1.7591095E1,-6.0889883E0,1.0593442E1,2.0326812E0,-2.0335886E0,-8.3061403E-1,-5.8601813E0,-1.564839E1,1.4375665E1,4.826319E0,-9.609702E0,1.949896E0,1.8151485E1,8.028282E0,2.0309217E0,7.9048866E-1,-1.8244047E1,-4.2248878E-1,1.0237618E-1,-7.4450736E0,2.9415355E0,1.4890432E1,-3.0783165E0,4.896012E0,-9.058151E-1,-7.0232886E-1,-1.2808064E0,-1.8398293E0,8.867254E0,1.8070326E1,-3.841469E0,7.6083307E0,-6.432044E0,-1.2035163E1,4.3384542E0,-1.3235955E0,1.8717219E0,5.1156086E-1,1.0435447E0,5.308832E0,-1.9453049E0,-7.326693E-1,-2.2118512E-1,-8.049348E-1,5.229819E-1,9.802582E-2,1.5799526E0,3.3542976E-1,-7.1158506E-2,-5.207853E-1,5.7281584E-1,1.0449511E-1,8.638191E-3,-1.2653415E-1,1.7233775E0,4.1635498E-1,1.86581E0,5.2146304E-1,4.6174623E-2,-4.539021E-1,4.5758343E-1,1.0856143E0,-7.7184695E-1,-3.6754292E-1,-1.3455915E0,-7.187798E-1,6.022535E-2,6.321632E-1,-2.7169806E-1,7.548504E-2,2.8691533E-1,6.9736606E-1],"categories":[],"categories_nodes":[],"categories_segments":[],"categories_sizes":[],"default_left":[0,0,0,0,0,0,0,0,0,0,0,0,0,0,0,0,0,0,0,0,0,0,0,0,0,0,0,0,0,0,0,0,0,0,0,0,0,0,0,0,0,0,0,0,0,0,0,0,0,0,0,0,0,0,0,0,0,0,0,0,0,0,0,0,0,0,0,0,0,0,0,0,0,0,0,0,0,0,0,0,0,0,0,0,0,0,0],"id":7,"left_children":[1,3,5,7,9,11,13,15,17,19,21,23,25,27,29,31,33,35,37,-1,-1,39,41,43,45,47,49,51,53,-1,-1,55,-1,-1,57,59,61,63,65,67,-1,-1,-1,69,71,73,75,77,79,81,83,-1,-1,-1,85,-1,-1,-1,-1,-1,-1,-1,-1,-1,-1,-1,-1,-1,-1,-1,-1,-1,-1,-1,-1,-1,-1,-1,-1,-1,-1,-1,-1,-1,-1,-1,-1],"loss_changes":[1.8986062E4,4.9541533E3,4.716875E3,5.579405E3,4.3508984E2,4.9601016E3,4.7516406E2,4.281001E2,5.24376E2,9.31543E0,8.4812695E2,1.5417402E3,2.0156337E3,9.402261E2,2.8728516E1,5.3833008E1,7.514047E1,4.8228186E2,2.345886E2,0E0,0E0,8.007501E1,4.5536133E1,3.485586E2,1.4519463E3,1.6922241E2,2.3249123E2,1.4872559E1,1.6716968E2,0E0,0E0,4.226123E1,0E0,0E0,1.1698608E0,2.6289131E1,5.1878174E1,2.6534412E1,2.6060806E1,1.5361865E0,0E0,0E0,0E0,4.0048987E2,8.492676E0,4.7121613E1,3.9352832E2,2.8370178E1,2.0358887E1,1.2215509E2,3.969989E1,0E0,0E0,0E0,5.3101135E1,0E0,0E0,0E0,0E0,0E0,0E0,0E0,0E0,0E0,0E0,0E0,0E0,0E0,0E0,0E0,0E0,0E0,0E0,0E0,0E0,0E0,0E0,0E0,0E0,0E0,0E0,0E0,0E0,0E0,0E0,0E0,0E0],"parents":[2147483647,0,0,1,1,2,2,3,3,4,4,5,5,6,6,7,7,8,8,9,9,10,10,11,11,12,12,13,13,14,14,15,15,16,16,17,17,18,18,21,21,22,22,23,23,24,24,25,25,26,26,27,27,28,28,31,31,34,34,35,35,36,36,37,37,38,38,39,39,43,43,44,44,45,45,46,46,47,47,48,48,49,49,50,50,54,54],"right_children":[2,4,6,8,10,12,14,16,18,20,22,24,26,28,30,32,34,36,38,-1,-1,40,42,44,46,48,50,52,54,-1,-1,56,-1,-1,58,60,62,64,66,68,-1,-1,-1,70,72,74,76,78,80,82,84,-1,-1,-1,86,-1,-1,-1,-1,-1,-1,-1,-1,-1,-1,-1,-1,-1,-1,-1,-1,-1,-1,-1,-1,-1,-1,-1,-1,-1,-1,-1,-1,-1,-1,-1,-1],"split_conditions":[8.88E2,1.285E1,2.67524E3,3.6917E2,5.0004E2,3.037E1,3.7904E3,2.9596E2,9.66E0,6.7E1,1.827E1,1.789E1,1.79284E3,3.527E1,2.8E1,1E0,5.51E0,5.1996E2,6.2168E2,-2.0335886E0,-8.3061403E-1,4E0,3.065E1,1.10922E3,1.26429E3,3.686E1,3.801E1,8.7E1,4.244E1,2.0309217E0,7.9048866E-1,2.7E1,-4.2248878E-1,1.0237618E-1,7.09E0,6.39E0,1E0,2.4E1,1E0,2.3E1,-7.0232886E-1,-1.2808064E0,-1.8398293E0,1.012E1,2.6E1,8E0,1.80774E3,1.44078E3,1.63228E3,2.15074E3,2.4276E3,1.8717219E0,5.1156086E-1,1.0435447E0,3.09624E3,-1.9453049E0,-7.326693E-1,-2.2118512E-1,-8.049348E-1,5.229819E-1,9.802582E-2,1.5799526E0,3.3542976E-1,-7.1158506E-2,-5.207853E-1,5.7281584E-1,1.0449511E-1,8.638191E-3,-1.2653415E-1,1.7233775E0,4.1635498E-1,1.86581E0,5.2146304E-1,4.6174623E-2,-4.539021E-1,4.5758343E-1,1.0856143E0,-7.7184695E-1,-3.6754292E-1,-1.3455915E0,-7.187798E-1,6.022535E-2,6.321632E-1,-2.7169806E-1,7.548504E-2,2.8691533E-1,6.9736606E-1],"split_indices":[19,0,19,19,19,0,19,19,0,1,0,0,19,0,20,18,0,19,19,0,0,20,0,19,19,0,0,1,0,0,0,20,0,0,0,0,6,1,2,1,0,0,0,0,20,20,19,19,19,19,19,0,0,0,19,0,0,0,0,0,0,0,0,0,0,0,0,0,0,0,0,0,0,0,0,0,0,0,0,0,0,0,0,0,0,0,0],"split_type":[0,0,0,0,0,0,0,0,0,0,0,0,0,0,0,0,0,0,0,0,0,0,0,0,0,0,0,0,0,0,0,0,0,0,0,0,0,0,0,0,0,0,0,0,0,0,0,0,0,0,0,0,0,0,0,0,0,0,0,0,0,0,0,0,0,0,0,0,0,0,0,0,0,0,0,0,0,0,0,0,0,0,0,0,0,0,0],"sum_hessian":[3.2E2,1.19E2,2.01E2,4.9E1,7E1,1.41E2,6E1,2E1,2.9E1,2.1E1,4.9E1,8.2E1,5.9E1,4.7E1,1.3E1,1.4E1,6E0,1.5E1,1.4E1,1.9E1,2E0,1.4E1,3.5E1,2.4E1,5.8E1,3.1E1,2.8E1,1.4E1,3.3E1,1.1E1,2E0,1.3E1,1E0,1E0,5E0,6E0,9E0,5E0,9E0,3E0,1.1E1,2E1,1.5E1,1.1E1,1.3E1,1.4E1,4.4E1,1.5E1,1.6E1,1.6E1,1.2E1,1.3E1,1E0,1.6E1,1.7E1,1.1E1,2E0,1E0,4E0,2E0,4E0,8E0,1E0,3E0,2E0,7E0,2E0,1E0,2E0,3E0,8E0,1.2E1,1E0,2E0,1.2E1,2.4E1,2E1,9E0,6E0,1.1E1,5E0,6E0,1E1,7E0,5E0,8E0,9E0],"tree_param":{"num_deleted":"0","num_feature":"23","num_nodes":"87","size_leaf_vector":"1"}},{"base_weights":[5.2304063E-2,-1.0341356E1,4.7338977E0,-4.2043185E0,-1.4712931E1,8.7542534E-1,1.0176571E1,-1.3326887E1,4.3077793E0,-1.7788032E0,-1.2486845E1,9.274907E0,-5.925189E0,7.5219736E0,1.428486E1,-1.9454468E0,-8.873491E0,9.452627E0,3.2518905E-1,-7.618273E-1,-1.546004E0,1.6865109E0,7.753599E0,-9.384091E0,-1.681622E0,1.2035788E1,3.737697E0,1.5029116E1,4.759596E-1,9.725743E-2,-9.705694E0,2.33708E0,1.216828E0,1.9727578E0,-4.2869225E0,1.5907915E0,1.1363053E1,-7.250226E0,-1.4350626E0,6.996727E-1,-7.4666967E0,7.829244E0,1.3470405E1,5.0165305E0,-2.2991817E-1,1.5398592E0,6.324656E-1,-1.0482935E0,-3.6205813E-1,3.2026026E-1,-1.2974358E-2,2.6142692E-2,2.5818285E-1,-4.860662E-1,-1.2828521E-1,4.0512872E-1,-2.606363E-1,1.8692139E0,8.952798E-1,-9.4881487E-1,-5.4552096E-1,-8.588546E-2,3.123349E-1,-3.640462E-1,-8.586446E-1,9.116441E-1,3.9411375E-1,1.4522157E0,6.158735E-1,7.09486E-2,6.0578173E-1,-1.5942988E-1,1.8741322E-1],"categories":[],"categories_nodes":[],"categories_segments":[],"categories_sizes":[],"default_left":[0,0,0,0,0,0,0,0,0,0,0,0,0,0,0,0,0,0,0,0,0,0,0,0,0,0,0,0,0,0,0,0,0,0,0,0,0,0,0,0,0,0,0,0,0,0,0,0,0,0,0,0,0,0,0,0,0,0,0,0,0,0,0,0,0,0,0,0,0,0,0,0,0],"id":8,"left_children":[1,3,5,7,9,11,13,15,17,-1,19,21,23,25,27,-1,29,31,33,-1,-1,-1,35,37,39,41,43,45,-1,-1,47,49,-1,51,53,55,57,59,-1,61,63,65,67,69,71,-1,-1,-1,-1,-1,-1,-1,-1,-1,-1,-1,-1,-1,-1,-1,-1,-1,-1,-1,-1,-1,-1,-1,-1,-1,-1,-1,-1],"loss_changes":[1.566846E4,2.6209941E3,4.653182E3,3.3964536E3,1.7491797E2,7.5378906E3,8.958877E2,4.0043042E2,4.6819202E2,0E0,4.178042E2,5.5050977E2,1.0557195E3,9.4574194E2,1.7659082E2,0E0,1.2415442E2,1.6479523E2,1.1483986E2,0E0,0E0,0E0,1.1163867E3,3.1987158E2,4.7360712E2,5.1441162E1,1.6859274E2,5.523926E0,0E0,0E0,2.3530518E1,8.955881E0,0E0,1.0790577E1,6.5870667E-1,2.1710072E2,3.9793164E2,6.875342E1,0E0,9.711663E1,1.1585571E1,9.113647E0,4.898291E1,1.0782373E2,2.8824453E1,0E0,0E0,0E0,0E0,0E0,0E0,0E0,0E0,0E0,0E0,0E0,0E0,0E0,0E0,0E0,0E0,0E0,0E0,0E0,0E0,0E0,0E0,0E0,0E0,0E0,0E0,0E0,0E0],"parents":[2147483647,0,0,1,1,2,2,3,3,4,4,5,5,6,6,7,7,8,8,10,10,11,11,12,12,13,13,14,14,16,16,17,17,18,18,22,22,23,23,24,24,25,25,26,26,27,27,30,30,31,31,33,33,34,34,35,35,36,36,37,37,39,39,40,40,41,41,42,42,43,43,44,44],"right_children":[2,4,6,8,10,12,14,16,18,-1,20,22,24,26,28,-1,30,32,34,-1,-1,-1,36,38,40,42,44,46,-1,-1,48,50,-1,52,54,56,58,60,-1,62,64,66,68,70,72,-1,-1,-1,-1,-1,-1,-1,-1,-1,-1,-1,-1,-1,-1,-1,-1,-1,-1,-1,-1,-1,-1,-1,-1,-1,-1,-1,-1],"split_conditions":[7.6136E2,1.257E1,2.15074E3,3.6917E2,5.0004E2,2.385E1,3.12035E3,1.8466E2,7.61E0,-1.7788032E0,2.223E1,1.131E1,1.50084E3,3.527E1,4.949E1,-1.9454468E0,5.51E0,4.6209E2,1.121E1,-7.618273E-1,-1.546004E0,1.6865109E0,1.13564E3,3.854E1,3.865E1,2.26094E3,4.534E1,2.9E1,4.759596E-1,9.725743E-2,1E0,1E0,1.216828E0,5.628E2,1.17E1,1.564E1,1.577E1,1.14912E3,-1.4350626E0,1.86677E3,4.175E1,2.906E1,8.1E1,2.43363E3,2.716E3,1.5398592E0,6.324656E-1,-1.0482935E0,-3.6205813E-1,3.2026026E-1,-1.2974358E-2,2.6142692E-2,2.5818285E-1,-4.860662E-1,-1.2828521E-1,4.0512872E-1,-2.606363E-1,1.8692139E0,8.952798E-1,-9.4881487E-1,-5.4552096E-1,-8.588546E-2,3.123349E-1,-3.640462E-1,-8.586446E-1,9.116441E-1,3.9411375E-1,1.4522157E0,6.158735E-1,7.09486E-2,6.0578173E-1,-1.5942988E-1,1.8741322E-1],"split_indices":[19,0,19,19,19,0,19,19,0,0,0,0,19,0,0,0,0,19,0,0,0,0,19,0,0,19,0,20,0,0,16,2,0,19,0,0,0,19,0,19,0,0,1,19,19,0,0,0,0,0,0,0,0,0,0,0,0,0,0,0,0,0,0,0,0,0,0,0,0,0,0,0,0],"split_type":[0,0,0,0,0,0,0,0,0,0,0,0,0,0,0,0,0,0,0,0,0,0,0,0,0,0,0,0,0,0,0,0,0,0,0,0,0,0,0,0,0,0,0,0,0,0,0,0,0,0,0,0,0,0,0,0,0,0,0,0,0,0,0,0,0,0,0,0,0,0,0,0,0],"sum_hessian":[3.2E2,9.9E1,2.21E2,4.2E1,5.7E1,1.3E2,9.1E1,2E1,2.2E1,2.1E1,3.6E1,5.8E1,7.2E1,5.7E1,3.4E1,7E0,1.3E1,9E0,1.3E1,1.5E1,2.1E1,8E0,5E1,3.9E1,3.3E1,2.5E1,3.2E1,3.1E1,3E0,1E0,1.2E1,3E0,6E0,1E1,3E0,1.9E1,3.1E1,2.9E1,1E1,2.4E1,9E0,8E0,1.7E1,2.4E1,8E0,2.9E1,2E0,1E1,2E0,2E0,1E0,3E0,7E0,2E0,1E0,1.2E1,7E0,6E0,2.5E1,1.1E1,1.8E1,1.5E1,9E0,3E0,6E0,5E0,3E0,1.4E1,3E0,5E0,1.9E1,5E0,3E0],"tree_param":{"num_deleted":"0","num_feature":"23","num_nodes":"73","size_leaf_vector":"1"}},{"base_weights":[5.095437E-2,-8.169247E0,4.9339895E0,-1.7840685E0,-1.2550791E1,2.072294E0,1.0542738E1,-1.2149366E1,5.5311093E0,-1.4782775E1,-9.83267E0,6.392073E0,-4.525746E0,8.954779E0,1.60281E1,-1.7752201E1,-8.079934E0,8.8614645E0,1.6099899E0,-1.7013203E0,-1.1483256E1,-6.373129E0,-1.3542556E0,1.35858345E1,4.3016148E0,-8.007851E0,5.156935E-1,1.5401745E1,6.152123E0,1.7036002E0,6.653786E-1,-1.8880776E0,-4.926094E-1,9.239464E-2,-8.843614E0,2.4651463E0,1.2452741E1,-2.7331264E0,4.0548606E0,-7.117506E-1,-1.4264106E0,-1.1485538E0,-7.2275513E-1,4.2367745E-2,1.4335156E1,-2.9259796E0,6.7213597E0,-1.0994991E0,-6.150288E0,2.8648155E0,-1.5116938E0,4.1828766E-1,1.58708105E1,7.8910236E0,3.8148627E0,-9.5299405E-1,-3.3792102E-1,4.3688026E-1,8.299233E-2,1.3156936E0,3.0574915E-1,-1.171608E-2,-4.011819E-1,1.7031486E-1,5.3388107E-1,-1.2050057E-2,-1.4510714E-1,7.2831464E-1,1.6666565E0,-5.6041338E-2,-3.8649312E-1,8.1723166E-1,3.217992E-1,-4.4100055E-1,-7.489661E-1,1.09630205E-1,3.71878E-1,-3.410662E-1,-2.8874546E-2,1.635417E0,4.5518914E-1,4.509647E-1,9.168356E-1,2.5554442E-1,6.830146E-1],"categories":[],"categories_nodes":[],"categories_segments":[],"categories_sizes":[],"default_left":[0,0,0,0,0,0,0,0,0,0,0,0,0,0,0,0,0,0,0,0,0,0,0,0,0,0,0,0,0,0,0,0,0,0,0,0,0,0,0,0,0,0,0,0,0,0,0,0,0,0,0,0,0,0,0,0,0,0,0,0,0,0,0,0,0,0,0,0,0,0,0,0,0,0,0,0,0,0,0,0,0,0,0,0,0],"id":9,"left_children":[1,3,5,7,9,11,13,15,17,19,21,23,25,27,29,31,33,35,37,-1,39,41,-1,43,45,47,49,51,53,-1,-1,-1,-1,-1,55,57,59,61,63,-1,-1,65,-1,-1,67,69,71,-1,73,75,77,-1,79,81,83,-1,-1,-1,-1,-1,-1,-1,-1,-1,-1,-1,-1,-1,-1,-1,-1,-1,-1,-1,-1,-1,-1,-1,-1,-1,-1,-1,-1,-1,-1],"loss_changes":[1.2925097E4,3.3348403E3,3.2203594E3,3.8583994E3,2.8538965E2,3.8767087E3,4.487881E2,3.3537085E2,3.7749475E2,7.692871E1,3.6289893E2,1.1746956E3,9.520901E2,8.99021E2,1.8923828E1,2.2793213E1,1.044361E2,3.3683716E2,1.7035782E2,0E0,1.1700391E2,8.097864E1,0E0,1.7145483E2,1.156447E3,1.0993921E2,1.1387006E2,1.78125E1,1.3246729E2,0E0,0E0,0E0,0E0,0E0,1.6551025E1,1.8164543E1,2.5933838E1,1.960007E1,2.1102005E1,0E0,0E0,1.0691614E0,0E0,0E0,1.5811426E2,3.5593628E1,2.2278003E2,0E0,1.8250061E1,1.2535828E1,2.9205608E1,0E0,7.6242676E0,5.367517E1,5.4698486E1,0E0,0E0,0E0,0E0,0E0,0E0,0E0,0E0,0E0,0E0,0E0,0E0,0E0,0E0,0E0,0E0,0E0,0E0,0E0,0E0,0E0,0E0,0E0,0E0,0E0,0E0,0E0,0E0,0E0,0E0],"parents":[2147483647,0,0,1,1,2,2,3,3,4,4,5,5,6,6,7,7,8,8,9,9,10,10,11,11,12,12,13,13,14,14,15,15,16,16,17,17,18,18,20,20,21,21,23,23,24,24,25,25,26,26,27,27,28,28,34,34,35,35,36,36,37,37,38,38,41,41,44,44,45,45,46,46,48,48,49,49,50,50,52,52,53,53,54,54],"right_children":[2,4,6,8,10,12,14,16,18,20,22,24,26,28,30,32,34,36,38,-1,40,42,-1,44,46,48,50,52,54,-1,-1,-1,-1,-1,56,58,60,62,64,-1,-1,66,-1,-1,68,70,72,-1,74,76,78,-1,80,82,84,-1,-1,-1,-1,-1,-1,-1,-1,-1,-1,-1,-1,-1,-1,-1,-1,-1,-1,-1,-1,-1,-1,-1,-1,-1,-1,-1,-1,-1,-1],"split_conditions":[8.88E2,1.285E1,2.53385E3,3.6917E2,5.9535E2,3.037E1,3.7904E3,1.8466E2,9.66E0,4.4E1,2.573E1,1.593E1,1.79284E3,3.524E1,2.8E1,9.6E1,5.51E0,5.1996E2,6.2168E2,-1.7013203E0,1.753E1,1.564E1,-1.3542556E0,8.8886E2,1.26429E3,1.24488E3,3.703E1,2E0,4.244E1,1.7036002E0,6.653786E-1,-1.8880776E0,-4.926094E-1,9.239464E-2,1E0,6.39E0,1E0,1.039E1,6.887E2,-7.117506E-1,-1.4264106E0,2.3E1,-7.2275513E-1,4.2367745E-2,5E0,2.2E1,2.744E1,-1.0994991E0,3.686E1,2.04654E3,2.0945E3,4.1828766E-1,8.7E1,2.81882E3,3.4202E3,-9.5299405E-1,-3.3792102E-1,4.3688026E-1,8.299233E-2,1.3156936E0,3.0574915E-1,-1.171608E-2,-4.011819E-1,1.7031486E-1,5.3388107E-1,-1.2050057E-2,-1.4510714E-1,7.2831464E-1,1.6666565E0,-5.6041338E-2,-3.8649312E-1,8.1723166E-1,3.217992E-1,-4.4100055E-1,-7.489661E-1,1.09630205E-1,3.71878E-1,-3.410662E-1,-2.8874546E-2,1.635417E0,4.5518914E-1,4.509647E-1,9.168356E-1,2.5554442E-1,6.830146E-1],"split_indices":[19,0,19,19,19,0,19,19,0,1,0,0,19,0,20,1,0,19,19,0,0,0,0,19,19,19,0,20,0,0,0,0,0,0,16,0,6,0,19,0,0,1,0,0,20,1,0,0,0,19,19,0,1,19,19,0,0,0,0,0,0,0,0,0,0,0,0,0,0,0,0,0,0,0,0,0,0,0,0,0,0,0,0,0,0],"split_type":[0,0,0,0,0,0,0,0,0,0,0,0,0,0,0,0,0,0,0,0,0,0,0,0,0,0,0,0,0,0,0,0,0,0,0,0,0,0,0,0,0,0,0,0,0,0,0,0,0,0,0,0,0,0,0,0,0,0,0,0,0,0,0,0,0,0,0,0,0,0,0,0,0,0,0,0,0,0,0,0,0,0,0,0,0],"sum_hessian":[3.2E2,1.19E2,2.01E2,4.9E1,7E1,1.34E2,6.7E1,2E1,2.9E1,3.6E1,3.4E1,8.1E1,5.3E1,5.4E1,1.3E1,7E0,1.3E1,1.5E1,1.4E1,1.9E1,1.7E1,1.9E1,1.5E1,1.7E1,6.4E1,3.1E1,2.2E1,1.5E1,3.9E1,1.1E1,2E0,6E0,1E0,1E0,1.2E1,6E0,9E0,5E0,9E0,8E0,9E0,3E0,1.6E1,1E0,1.6E1,1.6E1,4.8E1,1E1,2.1E1,1E1,1.2E1,1E0,1.4E1,2.1E1,1.8E1,1E1,2E0,2E0,4E0,8E0,1E0,2E0,3E0,4E0,5E0,1E0,2E0,5E0,1.1E1,5E0,1.1E1,3.3E1,1.5E1,1.1E1,1E1,4E0,6E0,4E0,8E0,1.3E1,1E0,7E0,1.4E1,1.4E1,4E0],"tree_param":{"num_deleted":"0","num_feature":"23","num_nodes":"85","size_leaf_vector":"1"}},{"base_weights":[4.8725106E-2,-7.4124904E0,4.4808893E0,-1.6285942E0,-1.1381256E1,2.067254E0,1.0026058E1,-1.1104868E1,5.059084E0,-1.4804744E1,-9.748423E0,5.8708425E0,-3.2288306E0,8.484718E0,1.4594503E1,-1.9979622E0,-8.515763E0,8.109148E0,1.46841E0,-1.5401239E0,-6.092028E-1,-4.051167E0,-1.1590874E1,1.2612019E1,4.07277E0,-7.278611E0,1.3512317E0,1.41868305E1,5.9614534E0,1.5474371E0,6.2102E-1,8.777485E-2,-9.119955E0,2.2928984E0,1.1369608E1,-2.5286312E0,3.7197938E0,-3.7989044E-1,-4.631389E-1,-9.450661E-1,-1.3943001E0,4.0249445E-2,1.3349958E1,-2.6594126E0,6.236973E0,-4.83506E0,-9.15027E0,4.001265E0,-4.9052557E-1,3.973732E-1,1.4666782E1,7.794621E0,3.7970939E0,-9.8543406E-1,-4.269619E-1,4.0775475E-1,7.635292E-2,1.1987427E0,2.9046175E-1,-5.9107304E-2,-4.269165E-1,1.5668969E-1,4.893909E-1,-4.553604E-2,-1.1447526E-2,6.676216E-1,1.5776548E0,-2.0997696E-2,-3.396933E-1,3.4434173E-1,7.5324744E-1,-5.79188E-1,-2.777452E-1,-1.1522571E0,-6.808783E-1,1.274795E-1,5.7666296E-1,-3.1378105E-1,4.899709E-2,1.5168298E0,4.3242952E-1,4.3456054E-1,8.469653E-1,2.6377872E-1,6.2837344E-1],"categories":[],"categories_nodes":[],"categories_segments":[],"categories_sizes":[],"default_left":[0,0,0,0,0,0,0,0,0,0,0,0,0,0,0,0,0,0,0,0,0,0,0,0,0,0,0,0,0,0,0,0,0,0,0,0,0,0,0,0,0,0,0,0,0,0,0,0,0,0,0,0,0,0,0,0,0,0,0,0,0,0,0,0,0,0,0,0,0,0,0,0,0,0,0,0,0,0,0,0,0,0,0,0,0],"id":10,"left_children":[1,3,5,7,9,11,13,15,17,19,21,23,25,27,29,-1,31,33,35,-1,-1,37,39,41,43,45,47,49,51,-1,-1,-1,53,55,57,59,61,63,-1,-1,-1,-1,65,67,69,71,73,75,77,-1,79,81,83,-1,-1,-1,-1,-1,-1,-1,-1,-1,-1,-1,-1,-1,-1,-1,-1,-1,-1,-1,-1,-1,-1,-1,-1,-1,-1,-1,-1,-1,-1,-1,-1],"loss_changes":[1.0648471E4,2.7360562E3,2.6828447E3,3.2248943E3,2.525664E2,2.8794219E3,3.0570264E2,3.1238892E2,3.16646E2,1.5313965E1,4.8838623E2,9.5468726E2,1.12273E3,6.060471E2,7.1799316E0,0E0,1.101637E2,2.77349E2,1.443891E2,0E0,0E0,2.8062775E1,5.9523438E1,1.4779468E2,9.927639E2,1.0210986E2,1.4350354E2,1.0343262E1,1.0927014E2,0E0,0E0,0E0,1.8480103E1,1.5992382E1,1.7479492E1,1.7710922E1,1.7609238E1,7.965118E-3,0E0,0E0,0E0,0E0,1.5378345E2,2.9997375E1,1.5863428E2,1.5413483E1,1.5975342E1,5.040732E1,4.82592E1,0E0,1.8376465E0,5.1019287E0,3.531488E1,0E0,0E0,0E0,0E0,0E0,0E0,0E0,0E0,0E0,0E0,0E0,0E0,0E0,0E0,0E0,0E0,0E0,0E0,0E0,0E0,0E0,0E0,0E0,0E0,0E0,0E0,0E0,0E0,0E0,0E0,0E0,0E0],"parents":[2147483647,0,0,1,1,2,2,3,3,4,4,5,5,6,6,7,7,8,8,9,9,10,10,11,11,12,12,13,13,14,14,16,16,17,17,18,18,21,21,22,22,23,23,24,24,25,25,26,26,27,27,28,28,32,32,33,33,34,34,35,35,36,36,37,37,42,42,43,43,44,44,45,45,46,46,47,47,48,48,50,50,51,51,52,52],"right_children":[2,4,6,8,10,12,14,16,18,20,22,24,26,28,30,-1,32,34,36,-1,-1,38,40,42,44,46,48,50,52,-1,-1,-1,54,56,58,60,62,64,-1,-1,-1,-1,66,68,70,72,74,76,78,-1,80,82,84,-1,-1,-1,-1,-1,-1,-1,-1,-1,-1,-1,-1,-1,-1,-1,-1,-1,-1,-1,-1,-1,-1,-1,-1,-1,-1,-1,-1,-1,-1,-1,-1],"split_conditions":[8.88E2,1.285E1,2.67524E3,3.6917E2,4.8804E2,3.037E1,3.7904E3,1.1362E2,9.66E0,6.7E1,1.822E1,1.577E1,1.79284E3,3.524E1,2.8E1,-1.9979622E0,5.51E0,5.1996E2,6.2168E2,-1.5401239E0,-6.092028E-1,1.384E1,3.065E1,8.8886E2,1.26429E3,3.686E1,3.671E1,2E0,4.244E1,1.5474371E0,6.2102E-1,8.777485E-2,3.2383E2,6.39E0,1E0,2.4E1,6.887E2,1.328E1,-4.631389E-1,-9.450661E-1,-1.3943001E0,4.0249445E-2,5E0,1E1,1.51923E3,1.44078E3,1.24032E3,2.19856E3,2.0945E3,3.973732E-1,8.7E1,2.88904E3,3.4202E3,-9.8543406E-1,-4.269619E-1,4.0775475E-1,7.635292E-2,1.1987427E0,2.9046175E-1,-5.9107304E-2,-4.269165E-1,1.5668969E-1,4.893909E-1,-4.553604E-2,-1.1447526E-2,6.676216E-1,1.5776548E0,-2.0997696E-2,-3.396933E-1,3.4434173E-1,7.5324744E-1,-5.79188E-1,-2.777452E-1,-1.1522571E0,-6.808783E-1,1.274795E-1,5.7666296E-1,-3.1378105E-1,4.899709E-2,1.5168298E0,4.3242952E-1,4.3456054E-1,8.469653E-1,2.6377872E-1,6.2837344E-1],"split_indices":[19,0,19,19,19,0,19,19,0,1,0,0,19,0,20,0,0,19,19,0,0,0,0,19,19,0,0,20,0,0,0,0,19,0,6,1,19,0,0,0,0,0,20,20,19,19,19,19,19,0,1,19,19,0,0,0,0,0,0,0,0,0,0,0,0,0,0,0,0,0,0,0,0,0,0,0,0,0,0,0,0,0,0,0,0],"split_type":[0,0,0,0,0,0,0,0,0,0,0,0,0,0,0,0,0,0,0,0,0,0,0,0,0,0,0,0,0,0,0,0,0,0,0,0,0,0,0,0,0,0,0,0,0,0,0,0,0,0,0,0,0,0,0,0,0,0,0,0,0,0,0,0,0,0,0,0,0,0,0,0,0,0,0,0,0,0,0,0,0,0,0,0,0],"sum_hessian":[3.2E2,1.19E2,2.01E2,4.9E1,7E1,1.41E2,6E1,2E1,2.9E1,2E1,5E1,8.2E1,5.9E1,4.7E1,1.3E1,3E0,1.7E1,1.5E1,1.4E1,1.8E1,2E0,1.3E1,3.7E1,1.6E1,6.6E1,3.1E1,2.8E1,1.3E1,3.4E1,1.1E1,2E0,1E0,1.6E1,6E0,9E0,5E0,9E0,2E0,1.1E1,2.2E1,1.5E1,1E0,1.5E1,1.6E1,5E1,1.5E1,1.6E1,1.1E1,1.7E1,1E0,1.2E1,1.7E1,1.7E1,1.3E1,3E0,2E0,4E0,8E0,1E0,3E0,2E0,4E0,5E0,1E0,1E0,5E0,1E1,4E0,1.2E1,1.7E1,3.3E1,9E0,6E0,6E0,1E1,5E0,6E0,4E0,1.3E1,1.1E1,1E0,4E0,1.3E1,1.3E1,4E0],"tree_param":{"num_deleted":"0","num_feature":"23","num_nodes":"85","size_leaf_vector":"1"}},{"base_weights":[4.7785427E-2,-7.7427883E0,3.5568376E0,-2.8858993E0,-1.0800702E1,6.14564E-1,7.707718E0,-1.0034342E1,4.059565E0,-1.484867E0,-9.613176E0,7.115873E0,-4.6483374E0,5.702979E0,1.0809637E1,-1.8481148E0,-7.456602E0,7.20176E0,1.1027721E0,-6.298809E0,-1.2203237E0,5.1892834E0,1.089873E1,-6.1179175E0,9.694121E-1,9.264679E0,2.7239733E0,1.134615E1,3.815119E-1,8.338604E-2,-8.026873E0,1.8893633E0,9.208592E0,-5.514824E-1,1.9988346E0,-6.4270127E-1,-1.6750698E-1,1.1067584E1,2.0648017E0,1.4703158E0,8.011828E0,-9.362982E0,-4.423564E0,2.7923493E0,-1.7732713E0,6.0847178E0,1.0339955E1,3.945902E0,-7.860288E-2,1.2420907E1,8.165169E0,-8.664028E-1,-3.949398E-1,2.6544368E-1,-2.0292854E-2,9.8220867E-1,2.763813E-1,6.4815395E-2,-1.5672913E-1,3.2720557E-1,5.804909E-2,1.3177607E0,6.057953E-1,-1.22351564E-1,3.9596176E-1,3.606827E-1,8.9726466E-1,-7.000722E-1,-1.1735998E0,-3.6204717E-1,-8.371008E-1,9.872063E-2,3.8312435E-1,-2.3902385E-1,9.6426584E-2,7.213148E-1,2.8708935E-1,1.0903704E0,3.8866463E-1,4.8692767E-2,4.879677E-1,-1.6088104E-1,1.4647052E-1,1.2680795E0,3.481636E-1,3.4653905E-1,8.82452E-1],"categories":[],"categories_nodes":[],"categories_segments":[],"categories_sizes":[],"default_left":[0,0,0,0,0,0,0,0,0,0,0,0,0,0,0,0,0,0,0,0,0,0,0,0,0,0,0,0,0,0,0,0,0,0,0,0,0,0,0,0,0,0,0,0,0,0,0,0,0,0,0,0,0,0,0,0,0,0,0,0,0,0,0,0,0,0,0,0,0,0,0,0,0,0,0,0,0,0,0,0,0,0,0,0,0,0,0],"id":11,"left_children":[1,3,5,7,9,11,13,15,17,-1,19,21,23,25,27,-1,29,31,33,35,-1,37,39,41,43,45,47,49,-1,-1,51,53,55,57,59,-1,-1,61,63,-1,65,67,69,71,73,75,77,79,81,83,85,-1,-1,-1,-1,-1,-1,-1,-1,-1,-1,-1,-1,-1,-1,-1,-1,-1,-1,-1,-1,-1,-1,-1,-1,-1,-1,-1,-1,-1,-1,-1,-1,-1,-1,-1,-1],"loss_changes":[8.802886E3,1.4540259E3,2.706555E3,2.026705E3,1.5048828E2,4.51534E3,5.104585E2,2.9766687E2,1.8716531E2,0E0,3.5235498E2,3.7343604E2,6.0859924E2,5.901621E2,8.805591E1,0E0,8.706598E1,8.9212524E1,1.889011E1,3.4609375E0,0E0,7.3018005E2,9.0878174E1,2.774829E2,8.4947426E1,2.598706E1,1.1332024E2,7.982422E0,0E0,0E0,7.3500977E0,6.9416885E0,5.303955E-1,7.1088514E0,1.25475235E1,0E0,0E0,6.815674E1,1.7930582E2,0E0,2.2658508E1,2.4347534E1,9.649951E1,1.4971291E1,1.4127615E1,1.1930969E1,2.3105957E1,7.191171E1,2.833383E1,6.9606934E0,3.5064087E0,0E0,0E0,0E0,0E0,0E0,0E0,0E0,0E0,0E0,0E0,0E0,0E0,0E0,0E0,0E0,0E0,0E0,0E0,0E0,0E0,0E0,0E0,0E0,0E0,0E0,0E0,0E0,0E0,0E0,0E0,0E0,0E0,0E0,0E0,0E0,0E0],"parents":[2147483647,0,0,1,1,2,2,3,3,4,4,5,5,6,6,7,7,8,8,10,10,11,11,12,12,13,13,14,14,16,16,17,17,18,18,19,19,21,21,22,22,23,23,24,24,25,25,26,26,27,27,30,30,31,31,32,32,33,33,34,34,37,37,38,38,40,40,41,41,42,42,43,43,44,44,45,45,46,46,47,47,48,48,49,49,50,50],"right_children":[2,4,6,8,10,12,14,16,18,-1,20,22,24,26,28,-1,30,32,34,36,-1,38,40,42,44,46,48,50,-1,-1,52,54,56,58,60,-1,-1,62,64,-1,66,68,70,72,74,76,78,80,82,84,86,-1,-1,-1,-1,-1,-1,-1,-1,-1,-1,-1,-1,-1,-1,-1,-1,-1,-1,-1,-1,-1,-1,-1,-1,-1,-1,-1,-1,-1,-1,-1,-1,-1,-1,-1,-1],"split_conditions":[7.6136E2,1.14E1,2.15074E3,3.6917E2,3.044E2,2.385E1,3.12035E3,1.1362E2,7.61E0,-1.484867E0,2.223E1,1.3409E3,1.79284E3,3.527E1,4.949E1,-1.8481148E0,5.51E0,4.6209E2,5.628E2,3E1,-1.2203237E0,1.319E1,1.708E1,1.14912E3,3.363E1,2.26094E3,4.419E1,1E0,3.815119E-1,8.338604E-2,3.2383E2,1E0,2.1E1,5.3E1,9.79E0,-6.4270127E-1,-1.6750698E-1,1.131E1,9.6822E2,1.4703158E0,1.48918E3,3.801E1,4.312E1,1.89336E3,1E0,2.906E1,9.2E1,2.43363E3,2.716E3,2.9E1,1.7E1,-8.664028E-1,-3.949398E-1,2.6544368E-1,-2.0292854E-2,9.8220867E-1,2.763813E-1,6.4815395E-2,-1.5672913E-1,3.2720557E-1,5.804909E-2,1.3177607E0,6.057953E-1,-1.22351564E-1,3.9596176E-1,3.606827E-1,8.9726466E-1,-7.000722E-1,-1.1735998E0,-3.6204717E-1,-8.371008E-1,9.872063E-2,3.8312435E-1,-2.3902385E-1,9.6426584E-2,7.213148E-1,2.8708935E-1,1.0903704E0,3.8866463E-1,4.8692767E-2,4.879677E-1,-1.6088104E-1,1.4647052E-1,1.2680795E0,3.481636E-1,3.4653905E-1,8.82452E-1],"split_indices":[19,0,19,19,19,0,19,19,0,0,0,19,19,0,0,0,0,19,19,20,0,0,0,19,0,19,0,2,0,0,19,2,20,1,0,0,0,0,19,0,19,0,0,19,13,0,1,19,19,20,20,0,0,0,0,0,0,0,0,0,0,0,0,0,0,0,0,0,0,0,0,0,0,0,0,0,0,0,0,0,0,0,0,0,0,0,0],"split_type":[0,0,0,0,0,0,0,0,0,0,0,0,0,0,0,0,0,0,0,0,0,0,0,0,0,0,0,0,0,0,0,0,0,0,0,0,0,0,0,0,0,0,0,0,0,0,0,0,0,0,0,0,0,0,0,0,0,0,0,0,0,0,0,0,0,0,0,0,0,0,0,0,0,0,0,0,0,0,0,0,0,0,0,0,0,0,0],"sum_hessian":[3.2E2,9.9E1,2.21E2,3.9E1,6E1,1.3E2,9.1E1,1.9E1,2E1,1.1E1,4.9E1,5.8E1,7.2E1,5.7E1,3.4E1,3E0,1.6E1,9E0,1.1E1,2.3E1,2.6E1,4E1,1.8E1,5.7E1,1.5E1,2.5E1,3.2E1,3.1E1,3E0,1E0,1.5E1,3E0,6E0,4E0,7E0,2.2E1,1E0,1.3E1,2.7E1,6E0,1.2E1,1.8E1,3.9E1,9E0,6E0,8E0,1.7E1,2.2E1,1E1,2.1E1,1E1,1.2E1,3E0,2E0,1E0,5E0,1E0,2E0,2E0,3E0,4E0,8E0,5E0,1E1,1.7E1,3E0,9E0,1.1E1,7E0,3.4E1,5E0,4E0,5E0,5E0,1E0,5E0,3E0,1.5E1,2E0,5E0,1.7E1,5E0,5E0,2E1,1E0,2E0,8E0],"tree_param":{"num_deleted":"0","num_feature":"23","num_nodes":"87","size_leaf_vector":"1"}},{"base_weights":[5.4482862E-2,-4.754729E0,4.7453427E0,5.7139196E-2,-8.082692E0,2.7833867E0,8.764811E0,-8.867022E0,5.3677793E0,-1.0582581E1,-5.357642E0,7.1753836E0,-9.942565E-2,7.335458E0,1.2222616E1,-1.3909593E1,-5.6758356E0,2.8158684E0,9.773494E0,-8.768349E0,-1.2328112E0,-2.5602934E0,-8.699108E0,1.130764E1,5.627436E0,-3.4753695E0,3.1829033E0,1.2519482E0,5.1901336E0,1.2957748E0,5.207886E-1,-1.4709824E0,-3.75387E-1,1.9713388E-1,-6.8268814E0,5.438684E0,-1.9542448E-1,1.3494331E0,5.793566E0,-1.2687709E0,-6.762187E0,2.707405E-1,-3.2160165E0,-6.5072715E-1,-1.0898527E0,5.2372134E-1,1.2929399E0,3.0088968E0,8.068981E0,-4.396033E0,-8.2617456E-1,4.90939E0,-1.1648823E-1,6.8028444E-1,3.3538337E0,-2.740552E-1,-7.620084E-1,1.5331358E-1,7.238144E-1,-1.3820527E-1,3.1166592E-1,1.8305868E-1,6.664334E-1,-3.9105362E-1,-7.452035E-1,-9.365387E-2,1.7901993E-1,-4.4054595E-1,-1.3481395E-1,4.7638813E-1,-1.2950529E-1,9.729358E-1,4.3071076E-1,-3.1555778E-1,-5.687923E-1,8.693466E-2,-2.695565E-1,3.5017142E-1,6.126698E-1,9.167638E-2,-1.4747429E-1,2.3030308E-1,5.204994E-1],"categories":[],"categories_nodes":[],"categories_segments":[],"categories_sizes":[],"default_left":[0,0,0,0,0,0,0,0,0,0,0,0,0,0,0,0,0,0,0,0,0,0,0,0,0,0,0,0,0,0,0,0,0,0,0,0,0,0,0,0,0,0,0,0,0,0,0,0,0,0,0,0,0,0,0,0,0,0,0,0,0,0,0,0,0,0,0,0,0,0,0,0,0,0,0,0,0,0,0,0,0,0,0],"id":12,"left_children":[1,3,5,7,9,11,13,15,17,19,21,23,25,27,29,31,33,35,37,39,-1,41,43,45,47,49,51,-1,53,-1,-1,-1,-1,-1,55,57,59,-1,61,-1,63,65,67,-1,-1,-1,-1,69,71,73,75,77,79,-1,81,-1,-1,-1,-1,-1,-1,-1,-1,-1,-1,-1,-1,-1,-1,-1,-1,-1,-1,-1,-1,-1,-1,-1,-1,-1,-1,-1,-1],"loss_changes":[7.2641104E3,2.5466428E3,1.2610251E3,3.1755344E3,5.8366064E2,1.4061179E3,1.7229004E2,3.2334607E2,4.446848E2,4.390918E1,4.1704834E2,2.1781348E2,7.645669E2,3.7987866E2,4.712158E0,1.7923584E1,1.6309631E2,2.222087E2,1.439497E2,1.2650098E2,0E0,5.0992813E1,3.0316406E1,4.057837E1,1.930929E2,7.929465E1,1.9994434E2,0E0,6.602704E1,0E0,0E0,0E0,0E0,0E0,2.7736084E1,9.432114E1,5.933035E1,0E0,1.8857819E1,0E0,1.0202637E1,1.2683057E1,4.2938934E1,0E0,0E0,0E0,0E0,1.4213005E2,6.427881E1,2.2114655E1,3.4039288E1,1.7958252E1,1.9596443E1,0E0,1.9136017E1,0E0,0E0,0E0,0E0,0E0,0E0,0E0,0E0,0E0,0E0,0E0,0E0,0E0,0E0,0E0,0E0,0E0,0E0,0E0,0E0,0E0,0E0,0E0,0E0,0E0,0E0,0E0,0E0],"parents":[2147483647,0,0,1,1,2,2,3,3,4,4,5,5,6,6,7,7,8,8,9,9,10,10,11,11,12,12,13,13,14,14,15,15,16,16,17,17,18,18,19,19,21,21,22,22,23,23,24,24,25,25,26,26,28,28,34,34,35,35,36,36,38,38,40,40,41,41,42,42,47,47,48,48,49,49,50,50,51,51,52,52,54,54],"right_children":[2,4,6,8,10,12,14,16,18,20,22,24,26,28,30,32,34,36,38,40,-1,42,44,46,48,50,52,-1,54,-1,-1,-1,-1,-1,56,58,60,-1,62,-1,64,66,68,-1,-1,-1,-1,70,72,74,76,78,80,-1,82,-1,-1,-1,-1,-1,-1,-1,-1,-1,-1,-1,-1,-1,-1,-1,-1,-1,-1,-1,-1,-1,-1,-1,-1,-1,-1,-1,-1],"split_conditions":[1.26429E3,1.443E1,2.81882E3,3.9614E2,7.1996E2,2.88E1,3.7904E3,1.848E2,8.086E2,2.359E1,2.598E1,1.789E1,2.0945E3,3.524E1,2.8E1,9.6E1,5.57E0,9.79E0,1.131E1,3.044E2,-1.2328112E0,1.636E1,3.801E1,1.3409E3,1.66686E3,1.79284E3,3.922E1,1.2519482E0,4.244E1,1.2957748E0,5.207886E-1,-1.4709824E0,-3.75387E-1,1.9713388E-1,7.72E0,5.1996E2,9E1,1.3494331E0,3E0,-1.2687709E0,1.637E1,2.7E1,1.11826E3,-6.5072715E-1,-1.0898527E0,5.2372134E-1,1.2929399E0,2.241E1,6.2E1,3.686E1,3.604E1,2.47434E3,4.489E1,6.8028444E-1,3.4202E3,-2.740552E-1,-7.620084E-1,1.5331358E-1,7.238144E-1,-1.3820527E-1,3.1166592E-1,1.8305868E-1,6.664334E-1,-3.9105362E-1,-7.452035E-1,-9.365387E-2,1.7901993E-1,-4.4054595E-1,-1.3481395E-1,4.7638813E-1,-1.2950529E-1,9.729358E-1,4.3071076E-1,-3.1555778E-1,-5.687923E-1,8.693466E-2,-2.695565E-1,3.5017142E-1,6.126698E-1,9.167638E-2,-1.4747429E-1,2.3030308E-1,5.204994E-1],"split_indices":[19,0,19,19,19,0,19,19,19,0,0,0,19,0,20,1,0,0,0,19,0,0,0,19,19,19,0,0,0,0,0,0,0,0,0,19,1,0,21,0,0,1,19,0,0,0,0,0,1,0,0,19,0,0,19,0,0,0,0,0,0,0,0,0,0,0,0,0,0,0,0,0,0,0,0,0,0,0,0,0,0,0,0],"split_type":[0,0,0,0,0,0,0,0,0,0,0,0,0,0,0,0,0,0,0,0,0,0,0,0,0,0,0,0,0,0,0,0,0,0,0,0,0,0,0,0,0,0,0,0,0,0,0,0,0,0,0,0,0,0,0,0,0,0,0,0,0,0,0,0,0,0,0,0,0,0,0,0,0,0,0,0,0,0,0,0,0,0,0],"sum_hessian":[3.2E2,1.58E2,1.62E2,6.5E1,9.3E1,1.1E2,5.2E1,2.4E1,4.1E1,4.7E1,4.6E1,4.3E1,6.7E1,3.9E1,1.3E1,8E0,1.6E1,2.7E1,1.4E1,2.6E1,2.1E1,2.6E1,2E1,1E1,3.3E1,3.3E1,3.4E1,1E1,2.9E1,1.1E1,2E0,7E0,1E0,2E0,1.4E1,1.4E1,1.3E1,6E0,8E0,7E0,1.9E1,5E0,2.1E1,1.2E1,8E0,3E0,7E0,1.7E1,1.6E1,2.4E1,9E0,2.2E1,1.2E1,1.4E1,1.5E1,3E0,1.1E1,5E0,9E0,1E1,3E0,2E0,6E0,5E0,1.4E1,3E0,2E0,1.2E1,9E0,1.2E1,5E0,1E1,6E0,1.4E1,1E1,5E0,4E0,1.2E1,1E1,7E0,5E0,1.1E1,4E0],"tree_param":{"num_deleted":"0","num_feature":"23","num_nodes":"83","size_leaf_vector":"1"}},{"base_weights":[5.714256E-2,-5.554513E0,3.3905163E0,-1.2557813E0,-8.503556E0,1.4169501E0,7.258765E0,-8.475843E0,3.8401217E0,-1.118427E0,-7.1539707E0,4.4273224E0,-3.180596E0,5.8564105E0,1.0331597E1,-1.5991827E0,-6.3347454E0,6.258073E0,1.0049663E0,-2.894831E0,-8.572186E0,8.427765E0,2.4194787E0,-5.508062E0,1.9590378E-1,1.0440537E1,3.7244585E0,1.0766255E1,4.2797828E-1,6.936016E-2,-6.7889776E0,3.2911985E0,1.065433E1,-2.021721E0,2.7204819E0,-1.8718974E-1,-3.3305055E-1,-7.1148005E0,-1.1015508E0,5.246304E0,1.0287125E1,-1.8572738E0,4.847043E0,-3.6228642E0,-6.958362E0,1.8825774E0,-1.2463511E0,2.9235268E-1,1.0768644E0,4.870964E0,1.1210753E0,1.1442418E0,5.53908E-1,-7.3284227E-1,-3.2036754E-1,5.9301186E-2,4.228892E-1,1.1561575E0,3.0590516E-1,-3.1312753E-2,-3.6259386E-1,1.1894623E-1,3.542918E-1,-3.0231286E-2,2.1528245E-3,-7.258749E-1,-1.7580414E-1,1.0704821E0,2.2373739E-1,1.2894491E0,6.8264526E-1,1.8364365E-1,-2.834408E-1,5.8148235E-1,7.3295884E-2,-4.0861723E-1,-1.2113982E-1,-7.901401E-1,-3.912557E-1,7.687592E-2,2.4092221E-1,-2.4799187E-1,-4.2255234E-2,3.372822E-2,5.0534165E-1,-8.4005736E-2,1.5973076E-1],"categories":[],"categories_nodes":[],"categories_segments":[],"categories_sizes":[],"default_left":[0,0,0,0,0,0,0,0,0,0,0,0,0,0,0,0,0,0,0,0,0,0,0,0,0,0,0,0,0,0,0,0,0,0,0,0,0,0,0,0,0,0,0,0,0,0,0,0,0,0,0,0,0,0,0,0,0,0,0,0,0,0,0,0,0,0,0,0,0,0,0,0,0,0,0,0,0,0,0,0,0,0,0,0,0,0,0],"id":13,"left_children":[1,3,5,7,9,11,13,15,17,-1,19,21,23,25,27,-1,29,31,33,35,37,39,41,43,45,47,49,51,-1,-1,53,55,57,59,61,63,-1,65,-1,67,69,71,73,75,77,79,81,-1,-1,83,85,-1,-1,-1,-1,-1,-1,-1,-1,-1,-1,-1,-1,-1,-1,-1,-1,-1,-1,-1,-1,-1,-1,-1,-1,-1,-1,-1,-1,-1,-1,-1,-1,-1,-1,-1,-1],"loss_changes":[6.0233765E3,1.5105786E3,1.5318325E3,1.872185E3,1.7685547E2,1.8825256E3,2.3251953E2,2.366377E2,1.9936884E2,0E0,2.7720386E2,6.3825476E2,4.2544818E2,4.3999854E2,6.5324707E0,0E0,6.217389E1,1.7362476E2,8.3384995E1,1.5891655E1,5.3378906E1,1.05748535E2,5.903994E2,6.2282104E1,5.8296455E1,5.5131836E0,9.900705E1,2.3901367E-1,0E0,0E0,9.401306E0,2.5322998E1,5.977234E0,1.5310352E1,8.377495E0,7.859305E-2,0E0,7.2873535E0,0E0,1.7314087E2,5.6348145E1,8.0999466E1,1.3907306E2,1.2926056E1,1.7914612E1,4.600342E0,1.2162849E1,0E0,0E0,1.8147888E1,1.2549286E1,0E0,0E0,0E0,0E0,0E0,0E0,0E0,0E0,0E0,0E0,0E0,0E0,0E0,0E0,0E0,0E0,0E0,0E0,0E0,0E0,0E0,0E0,0E0,0E0,0E0,0E0,0E0,0E0,0E0,0E0,0E0,0E0,0E0,0E0,0E0,0E0],"parents":[2147483647,0,0,1,1,2,2,3,3,4,4,5,5,6,6,7,7,8,8,10,10,11,11,12,12,13,13,14,14,16,16,17,17,18,18,19,19,20,20,21,21,22,22,23,23,24,24,25,25,26,26,27,27,30,30,31,31,32,32,33,33,34,34,35,35,37,37,39,39,40,40,41,41,42,42,43,43,44,44,45,45,46,46,49,49,50,50],"right_children":[2,4,6,8,10,12,14,16,18,-1,20,22,24,26,28,-1,30,32,34,36,38,40,42,44,46,48,50,52,-1,-1,54,56,58,60,62,64,-1,66,-1,68,70,72,74,76,78,80,82,-1,-1,84,86,-1,-1,-1,-1,-1,-1,-1,-1,-1,-1,-1,-1,-1,-1,-1,-1,-1,-1,-1,-1,-1,-1,-1,-1,-1,-1,-1,-1,-1,-1,-1,-1,-1,-1,-1,-1],"split_conditions":[8.88E2,1.285E1,2.53385E3,3.6917E2,5.0004E2,3.037E1,3.4202E3,1.1362E2,9.66E0,-1.118427E0,1.822E1,1.852E1,1.79284E3,3.524E1,2.9E1,-1.5991827E0,5.51E0,5.9535E2,6.2168E2,1.384E1,3.383E1,1.10922E3,1.36858E3,3.686E1,3.703E1,2E0,4.47E1,4.885E1,4.2797828E-1,6.936016E-2,3.2383E2,4.4667E2,9.14E0,2.4E1,6.887E2,1.328E1,-3.3305055E-1,8.8305E2,-1.1015508E0,1.012E1,1.577E1,1.934E1,1E0,1.5366E3,1.63228E3,2.04654E3,2.0945E3,2.9235268E-1,1.0768644E0,2.567E3,2.716E3,1.1442418E0,5.53908E-1,-7.3284227E-1,-3.2036754E-1,5.9301186E-2,4.228892E-1,1.1561575E0,3.0590516E-1,-3.1312753E-2,-3.6259386E-1,1.1894623E-1,3.542918E-1,-3.0231286E-2,2.1528245E-3,-7.258749E-1,-1.7580414E-1,1.0704821E0,2.2373739E-1,1.2894491E0,6.8264526E-1,1.8364365E-1,-2.834408E-1,5.8148235E-1,7.3295884E-2,-4.0861723E-1,-1.2113982E-1,-7.901401E-1,-3.912557E-1,7.687592E-2,2.4092221E-1,-2.4799187E-1,-4.2255234E-2,3.372822E-2,5.0534165E-1,-8.4005736E-2,1.5973076E-1],"split_indices":[19,0,19,19,19,0,19,19,0,0,0,0,19,0,20,0,0,19,19,0,0,19,19,0,0,20,0,0,0,0,19,19,0,1,19,0,0,19,0,0,0,0,14,19,19,19,19,0,0,19,19,0,0,0,0,0,0,0,0,0,0,0,0,0,0,0,0,0,0,0,0,0,0,0,0,0,0,0,0,0,0,0,0,0,0,0,0],"split_type":[0,0,0,0,0,0,0,0,0,0,0,0,0,0,0,0,0,0,0,0,0,0,0,0,0,0,0,0,0,0,0,0,0,0,0,0,0,0,0,0,0,0,0,0,0,0,0,0,0,0,0,0,0,0,0,0,0,0,0,0,0,0,0,0,0,0,0,0,0,0,0,0,0,0,0,0,0,0,0,0,0,0,0,0,0,0,0],"sum_hessian":[3.2E2,1.19E2,2.01E2,4.9E1,7E1,1.34E2,6.7E1,2E1,2.9E1,2.1E1,4.9E1,8.1E1,5.3E1,4.8E1,1.9E1,3E0,1.7E1,1.5E1,1.4E1,1.3E1,3.6E1,2.6E1,5.5E1,3.1E1,2.2E1,1.4E1,3.4E1,1.7E1,2E0,1E0,1.6E1,1E1,5E0,5E0,9E0,2E0,1.1E1,2.5E1,1.1E1,1.1E1,1.5E1,2E1,3.5E1,1.5E1,1.6E1,1E1,1.2E1,1E0,1.3E1,2.3E1,1.1E1,1.4E1,3E0,1.3E1,3E0,3E0,7E0,4E0,1E0,3E0,2E0,4E0,5E0,1E0,1E0,2.4E1,1E0,3E0,8E0,7E0,8E0,4E0,1.6E1,2.8E1,7E0,1.2E1,3E0,1.1E1,5E0,4E0,6E0,4E0,8E0,1E0,2.2E1,2E0,9E0],"tree_param":{"num_deleted":"0","num_feature":"23","num_nodes":"87","size_leaf_vector":"1"}},{"base_weights":[5.8299188E-2,-5.032747E0,3.0823944E0,-1.5548425E0,-8.051619E0,1.2910894E0,6.5933323E0,-7.8669825E0,2.6375594E0,-1.0949824E1,-6.8574295E0,4.4925823E0,-2.3307633E0,5.3112597E0,9.404744E0,-1.1740748E1,-5.0182576E0,5.753781E0,1.2704277E-2,-1.1286148E0,-2.784317E-1,-3.9351509E0,-8.195595E0,8.872248E0,2.9775538E0,-4.9244413E0,9.6934617E-1,9.487763E0,3.3695793E0,1.0243136E1,5.741305E0,-1.2408403E0,-3.1997567E-1,-1.4072297E0,-6.2034283E0,3.0059142E0,9.832573E0,-2.6855545E0,2.0353396E0,-1.415535E-1,-4.1767308E-1,-6.7709527E0,-1.0005753E0,2.4216844E-2,9.365654E0,-1.6552894E0,4.7562523E0,-6.7306745E-1,-3.3137667E0,2.7950714E0,-9.210022E-1,1.0024336E1,4.0000305E-1,4.564846E0,1.2506186E0,1.0802761E0,4.4037196E-1,6.412538E-1,1.1925697E-1,6.589222E-2,-2.0884982E-1,-6.486859E-1,-1.6845647E-1,-4.8995973E-3,3.690227E-1,1.0636648E0,2.9060975E-1,-2.8964425E-2,-3.8352355E-1,6.500652E-2,2.9319552E-1,-6.942487E-1,-1.6701393E-1,1.016144E0,2.2648393E-1,4.01872E-3,-2.429614E-1,2.72207E-1,5.867879E-1,-2.3882619E-1,-5.7977295E-1,2.9478742E-2,3.3955768E-1,-4.2063394E-4,-1.968168E-1,1.0406675E0,2.7181283E-1,2.93116E-1,5.4703856E-1,-7.840525E-2,1.6550681E-1],"categories":[],"categories_nodes":[],"categories_segments":[],"categories_sizes":[],"default_left":[0,0,0,0,0,0,0,0,0,0,0,0,0,0,0,0,0,0,0,0,0,0,0,0,0,0,0,0,0,0,0,0,0,0,0,0,0,0,0,0,0,0,0,0,0,0,0,0,0,0,0,0,0,0,0,0,0,0,0,0,0,0,0,0,0,0,0,0,0,0,0,0,0,0,0,0,0,0,0,0,0,0,0,0,0,0,0,0,0,0,0],"id":14,"left_children":[1,3,5,7,9,11,13,15,17,19,21,23,25,27,29,31,33,35,37,-1,-1,39,41,43,45,47,49,51,53,55,57,-1,-1,59,61,63,65,67,69,-1,-1,71,-1,-1,73,75,77,-1,79,81,83,85,-1,87,89,-1,-1,-1,-1,-1,-1,-1,-1,-1,-1,-1,-1,-1,-1,-1,-1,-1,-1,-1,-1,-1,-1,-1,-1,-1,-1,-1,-1,-1,-1,-1,-1,-1,-1,-1,-1],"loss_changes":[4.9575674E3,1.2474026E3,1.261898E3,1.5291423E3,1.4641699E2,1.5758414E3,1.9515039E2,1.9489368E2,2.86214E2,1.5262207E1,1.5545264E2,4.5132507E2,5.525764E2,3.6539258E2,2.6191406E0,1.1618042E1,5.5465607E1,1.4977179E2,1.1461788E2,0E0,0E0,4.4353943E0,1.4773926E1,7.437854E1,4.6109668E2,8.242926E1,1.02660706E2,4.0706787E0,8.293646E1,1.4456787E0,1.067218E1,0E0,0E0,8.414179E0,3.1610718E0,2.3176453E1,2.50531E0,2.3679947E1,1.2998741E1,0E0,0E0,6.779297E0,0E0,0E0,7.304834E1,2.1103226E1,7.4477234E1,0E0,3.4430786E1,2.152053E1,1.439228E1,8.02832E0,0E0,1.6511505E1,1.2818567E1,0E0,0E0,0E0,0E0,0E0,0E0,0E0,0E0,0E0,0E0,0E0,0E0,0E0,0E0,0E0,0E0,0E0,0E0,0E0,0E0,0E0,0E0,0E0,0E0,0E0,0E0,0E0,0E0,0E0,0E0,0E0,0E0,0E0,0E0,0E0,0E0],"parents":[2147483647,0,0,1,1,2,2,3,3,4,4,5,5,6,6,7,7,8,8,9,9,10,10,11,11,12,12,13,13,14,14,15,15,16,16,17,17,18,18,21,21,22,22,23,23,24,24,25,25,26,26,27,27,28,28,29,29,30,30,33,33,34,34,35,35,36,36,37,37,38,38,41,41,44,44,45,45,46,46,48,48,49,49,50,50,51,51,53,53,54,54],"right_children":[2,4,6,8,10,12,14,16,18,20,22,24,26,28,30,32,34,36,38,-1,-1,40,42,44,46,48,50,52,54,56,58,-1,-1,60,62,64,66,68,70,-1,-1,72,-1,-1,74,76,78,-1,80,82,84,86,-1,88,90,-1,-1,-1,-1,-1,-1,-1,-1,-1,-1,-1,-1,-1,-1,-1,-1,-1,-1,-1,-1,-1,-1,-1,-1,-1,-1,-1,-1,-1,-1,-1,-1,-1,-1,-1,-1],"split_conditions":[8.88E2,1.451E1,2.53385E3,3.6917E2,4.8804E2,2.906E1,3.4202E3,1.848E2,9.66E0,6.7E1,2.223E1,1.593E1,1.79284E3,3.524E1,2.7E1,9.6E1,7.72E0,5.9535E2,6.2168E2,-1.1286148E0,-2.784317E-1,1.564E1,3.383E1,8.8886E2,1.26429E3,1.36858E3,3.588E1,1E0,4.334E1,4.885E1,1E0,-1.2408403E0,-3.1997567E-1,5.51E0,2.4E1,3E0,9.14E0,2.4E1,5.6E1,-1.415535E-1,-4.1767308E-1,8.8305E2,-1.0005753E0,2.4216844E-2,1E0,1.3E1,1.51923E3,-6.7306745E-1,4.312E1,2.00165E3,4.049E1,8.7E1,4.0000305E-1,2.89168E3,2.716E3,1.0802761E0,4.4037196E-1,6.412538E-1,1.1925697E-1,6.589222E-2,-2.0884982E-1,-6.486859E-1,-1.6845647E-1,-4.8995973E-3,3.690227E-1,1.0636648E0,2.9060975E-1,-2.8964425E-2,-3.8352355E-1,6.500652E-2,2.9319552E-1,-6.942487E-1,-1.6701393E-1,1.016144E0,2.2648393E-1,4.01872E-3,-2.429614E-1,2.72207E-1,5.867879E-1,-2.3882619E-1,-5.7977295E-1,2.9478742E-2,3.3955768E-1,-4.2063394E-4,-1.968168E-1,1.0406675E0,2.7181283E-1,2.93116E-1,5.4703856E-1,-7.840525E-2,1.6550681E-1],"split_indices":[19,0,19,19,19,0,19,19,0,1,0,0,19,0,20,1,0,19,19,0,0,0,0,19,19,19,0,5,0,0,7,0,0,0,20,21,0,1,1,0,0,19,0,0,16,20,19,0,0,19,0,1,0,19,19,0,0,0,0,0,0,0,0,0,0,0,0,0,0,0,0,0,0,0,0,0,0,0,0,0,0,0,0,0,0,0,0,0,0,0,0],"split_type":[0,0,0,0,0,0,0,0,0,0,0,0,0,0,0,0,0,0,0,0,0,0,0,0,0,0,0,0,0,0,0,0,0,0,0,0,0,0,0,0,0,0,0,0,0,0,0,0,0,0,0,0,0,0,0,0,0,0,0,0,0,0,0,0,0,0,0,0,0,0,0,0,0,0,0,0,0,0,0,0,0,0,0,0,0,0,0,0,0,0,0],"sum_hessian":[3.2E2,1.19E2,2.01E2,5.6E1,6.3E1,1.34E2,6.7E1,2.2E1,3.4E1,1.6E1,4.7E1,7.1E1,6.3E1,4.8E1,1.9E1,8E0,1.4E1,1.5E1,1.9E1,1.5E1,1E0,1.6E1,3.1E1,1.7E1,5.4E1,3.5E1,2.8E1,1.4E1,3.4E1,1.4E1,5E0,7E0,1E0,4E0,1E1,1E1,5E0,8E0,1.1E1,2E0,1.4E1,2E1,1.1E1,1E0,1.6E1,1.5E1,3.9E1,1.5E1,2E1,1.4E1,1.4E1,1.2E1,2E0,2.1E1,1.3E1,1.2E1,2E0,4E0,1E0,1E0,3E0,9E0,1E0,2E0,8E0,4E0,1E0,3E0,5E0,5E0,6E0,1.9E1,1E0,1.4E1,2E0,5E0,1E1,1.5E1,2.4E1,1.6E1,4E0,3E0,1.1E1,8E0,6E0,1.1E1,1E0,9E0,1.2E1,2E0,1.1E1],"tree_param":{"num_deleted":"0","num_feature":"23","num_nodes":"91","size_leaf_vector":"1"}},{"base_weights":[5.49711E-2,-5.265812E0,2.4514725E0,-9.829206E0,-3.695408E0,4.3229184E-1,5.299964E0,-1.0261813E1,-3.2361603E-1,2.8256633E0,-5.9186716E0,5.041049E0,-3.298516E0,3.883419E0,7.4959536E0,-1.0645081E1,-4.1583315E-1,-1.2595113E-1,4.803902E0,-3.671968E0,-8.27901E0,3.612916E0,7.857492E0,-4.644132E0,-5.2916765E-1,7.104697E0,2.1319067E0,7.9251065E0,3.3360124E0,-1.0873358E0,-3.0397692E-1,1.6520602E-1,-8.69963E-1,6.841859E0,1.6256357E0,-5.4541826E0,-2.419041E0,-8.552529E-1,-3.2400104E-1,9.408347E0,1.9228613E0,1.1063633E0,5.9221816E0,-3.6155765E0,-7.868635E0,1.0460362E0,-2.6290667E0,3.9284549E0,8.18534E0,2.924021E0,-1.5020475E-1,8.803225E0,5.5282364E0,3.7513104E-1,8.3741E-2,-1.3745436E-1,1.0787602E-1,2.8766963E-1,7.852585E-1,2.0779514E-1,4.8066966E-2,-5.681821E-1,-1.4750795E-1,4.1068953E-2,-3.1521416E-1,3.7721786E-1,1.0479798E0,2.6020051E-3,3.1545073E-1,2.3387586E-1,6.686865E-1,-5.017871E-1,-2.806487E-1,-8.2513237E-1,-2.020876E-1,1.7228868E-3,2.219355E-1,-3.0444345E-1,7.623043E-2,4.2414108E-1,1.02536015E-1,4.5894685E-1,9.164743E-1,1.1173457E-1,3.8160953E-1,-1.1781763E-1,9.0280086E-2,9.298062E-1,4.3756524E-1,5.854472E-1,1.1329422E-1],"categories":[],"categories_nodes":[],"categories_segments":[],"categories_sizes":[],"default_left":[0,0,0,0,0,0,0,0,0,0,0,0,0,0,0,0,0,0,0,0,0,0,0,0,0,0,0,0,0,0,0,0,0,0,0,0,0,0,0,0,0,0,0,0,0,0,0,0,0,0,0,0,0,0,0,0,0,0,0,0,0,0,0,0,0,0,0,0,0,0,0,0,0,0,0,0,0,0,0,0,0,0,0,0,0,0,0,0,0,0,0],"id":15,"left_children":[1,3,5,7,9,11,13,15,-1,17,19,21,23,25,27,29,-1,31,33,35,37,39,41,43,45,47,49,51,53,-1,-1,-1,55,57,59,61,63,-1,-1,65,67,-1,69,71,73,75,77,79,81,83,85,87,89,-1,-1,-1,-1,-1,-1,-1,-1,-1,-1,-1,-1,-1,-1,-1,-1,-1,-1,-1,-1,-1,-1,-1,-1,-1,-1,-1,-1,-1,-1,-1,-1,-1,-1,-1,-1,-1,-1],"loss_changes":[4.1060645E3,6.8031445E2,1.274568E3,3.8095703E1,1.1185768E3,2.2690928E3,2.5707617E2,9.537598E0,0E0,1.1738501E2,2.7186975E2,2.0892456E2,2.6957556E2,3.1209576E2,3.6045654E1,3.4060059E0,0E0,1.3342984E1,6.660367E1,5.6028687E1,9.502808E0,3.834875E2,5.2371826E1,1.3406274E2,8.5444336E1,3.6491882E1,7.093924E1,1.6580444E1,2.0469398E0,0E0,0E0,0E0,8.365817E0,5.4643555E0,2.108508E0,2.4884033E0,4.278408E1,0E0,0E0,1.4818176E1,7.701374E1,0E0,2.2723602E1,3.0166077E1,7.9417114E0,1.8068544E1,1.7816109E1,2.0108109E0,7.2439575E0,4.2475037E1,1.2970715E1,5.324341E0,9.140076E0,0E0,0E0,0E0,0E0,0E0,0E0,0E0,0E0,0E0,0E0,0E0,0E0,0E0,0E0,0E0,0E0,0E0,0E0,0E0,0E0,0E0,0E0,0E0,0E0,0E0,0E0,0E0,0E0,0E0,0E0,0E0,0E0,0E0,0E0,0E0,0E0,0E0,0E0],"parents":[2147483647,0,0,1,1,2,2,3,3,4,4,5,5,6,6,7,7,9,9,10,10,11,11,12,12,13,13,14,14,15,15,17,17,18,18,19,19,20,20,21,21,22,22,23,23,24,24,25,25,26,26,27,27,28,28,32,32,33,33,34,34,35,35,36,36,39,39,40,40,42,42,43,43,44,44,45,45,46,46,47,47,48,48,49,49,50,50,51,51,52,52],"right_children":[2,4,6,8,10,12,14,16,-1,18,20,22,24,26,28,30,-1,32,34,36,38,40,42,44,46,48,50,52,54,-1,-1,-1,56,58,60,62,64,-1,-1,66,68,-1,70,72,74,76,78,80,82,84,86,88,90,-1,-1,-1,-1,-1,-1,-1,-1,-1,-1,-1,-1,-1,-1,-1,-1,-1,-1,-1,-1,-1,-1,-1,-1,-1,-1,-1,-1,-1,-1,-1,-1,-1,-1,-1,-1,-1,-1],"split_conditions":[7.6136E2,3.044E2,2.15074E3,1E0,9.82E0,2.385E1,3.12035E3,1E0,-3.2361603E-1,4.6209E2,2.223E1,1.3409E3,1.665E3,3.255E1,4.935E1,9.6E1,-4.1583315E-1,5.57E0,7.61E0,5.136E2,7.3863E2,1.131E1,1.667E1,3.94E1,3.604E1,2.18807E3,4.419E1,1E0,1E0,-1.0873358E0,-3.0397692E-1,1.6520602E-1,8.9E1,1E0,1E0,1E0,1.121E1,-8.552529E-1,-3.2400104E-1,7.8349E2,9.6822E2,1.1063633E0,1.48918E3,1.14912E3,1E0,1.89336E3,2.0945E3,2.944E1,6E0,2.567E3,2.716E3,2.8E1,1E0,3.7513104E-1,8.3741E-2,-1.3745436E-1,1.0787602E-1,2.8766963E-1,7.852585E-1,2.0779514E-1,4.8066966E-2,-5.681821E-1,-1.4750795E-1,4.1068953E-2,-3.1521416E-1,3.7721786E-1,1.0479798E0,2.6020051E-3,3.1545073E-1,2.3387586E-1,6.686865E-1,-5.017871E-1,-2.806487E-1,-8.2513237E-1,-2.020876E-1,1.7228868E-3,2.219355E-1,-3.0444345E-1,7.623043E-2,4.2414108E-1,1.02536015E-1,4.5894685E-1,9.164743E-1,1.1173457E-1,3.8160953E-1,-1.1781763E-1,9.0280086E-2,9.298062E-1,4.3756524E-1,5.854472E-1,1.1329422E-1],"split_indices":[19,19,19,15,0,0,19,18,0,19,0,19,19,0,0,1,0,0,0,19,19,0,0,0,0,19,0,2,14,0,0,0,1,2,15,14,0,0,0,19,19,0,19,19,4,19,19,0,20,19,19,20,7,0,0,0,0,0,0,0,0,0,0,0,0,0,0,0,0,0,0,0,0,0,0,0,0,0,0,0,0,0,0,0,0,0,0,0,0,0,0],"split_type":[0,0,0,0,0,0,0,0,0,0,0,0,0,0,0,0,0,0,0,0,0,0,0,0,0,0,0,0,0,0,0,0,0,0,0,0,0,0,0,0,0,0,0,0,0,0,0,0,0,0,0,0,0,0,0,0,0,0,0,0,0,0,0,0,0,0,0,0,0,0,0,0,0,0,0,0,0,0,0,0,0,0,0,0,0,0,0,0,0,0,0],"sum_hessian":[3.2E2,9.9E1,2.21E2,2.4E1,7.5E1,1.3E2,9.1E1,2.2E1,2E0,1.9E1,5.6E1,5.8E1,7.2E1,5.7E1,3.4E1,2E1,2E0,8E0,1.1E1,3E1,2.6E1,4E1,1.8E1,4.8E1,2.4E1,1.9E1,3.8E1,3E1,4E0,1.9E1,1E0,2E0,6E0,6E0,5E0,1.1E1,1.9E1,2.4E1,2E0,8E0,3.2E1,5E0,1.3E1,3.8E1,1E1,1.4E1,1E1,6E0,1.3E1,2.8E1,1E1,2E1,1E1,3E0,1E0,5E0,1E0,2E0,4E0,3E0,2E0,1E1,1E0,4E0,1.5E1,2E0,6E0,1.3E1,1.9E1,3E0,1E1,1.2E1,2.6E1,9E0,1E0,8E0,6E0,9E0,1E0,5E0,1E0,4E0,9E0,1E1,1.8E1,5E0,5E0,1.7E1,3E0,9E0,1E0],"tree_param":{"num_deleted":"0","num_feature":"23","num_nodes":"91","size_leaf_vector":"1"}},{"base_weights":[6.1920386E-2,-3.5909784E0,2.9433076E0,-7.9756355E-1,-6.619142E0,1.6439048E0,6.0259542E0,-6.1098475E0,2.6843076E0,-8.364059E0,-5.339811E0,7.202796E0,4.8559168E-1,4.9690742E0,8.3721113E-1,-1.021748E1,-3.862887E0,5.665546E0,3.7656417E-1,-2.1413688E-1,-8.5210335E-1,-4.088814E0,-7.815973E-1,1.0114053E0,5.1699386E0,-2.1630847E0,2.6771095E0,8.7902975E0,3.3482974E0,-1.1249601E1,-4.0593275E-1,-8.1077576E-2,-5.0396347E0,2.522889E0,8.555914E0,-2.0899625E0,1.5250998E0,-2.1721826E0,-4.5776935E0,1.7965642E-1,5.863569E-1,1.012235E0,-3.1088939E0,4.4791317E0,2.1765298E-1,9.156435E-1,2.564457E-1,4.58136E-1,1.8920151E0,-1.2031608E0,-2.8877813E-1,1.5419222E-1,-1.2780581E-1,-5.553865E-1,-2.1084785E-1,5.3809434E-2,3.5801867E-1,8.686066E-2,9.313548E-1,-1.1876253E-1,-3.4987614E-1,-1.7519161E-2,2.3233259E-1,-4.859365E-2,-2.6532754E-1,-4.6678534E-1,-1.2970868E-1,2.422661E-2,3.2413864E-1,-2.5664183E-1,-5.57436E-1,6.677937E-1,3.5457328E-1,-6.0548224E-2,1.5952174E-1,1.3204804E-1,2.7709886E-1],"categories":[],"categories_nodes":[],"categories_segments":[],"categories_sizes":[],"default_left":[0,0,0,0,0,0,0,0,0,0,0,0,0,0,0,0,0,0,0,0,0,0,0,0,0,0,0,0,0,0,0,0,0,0,0,0,0,0,0,0,0,0,0,0,0,0,0,0,0,0,0,0,0,0,0,0,0,0,0,0,0,0,0,0,0,0,0,0,0,0,0,0,0,0,0,0,0],"id":16,"left_children":[1,3,5,7,9,11,13,15,17,19,21,23,25,27,-1,29,31,33,35,-1,-1,37,-1,-1,39,41,43,45,47,49,-1,51,53,55,57,59,61,63,65,-1,-1,67,69,71,73,-1,-1,-1,75,-1,-1,-1,-1,-1,-1,-1,-1,-1,-1,-1,-1,-1,-1,-1,-1,-1,-1,-1,-1,-1,-1,-1,-1,-1,-1,-1,-1],"loss_changes":[3.389228E3,1.1958872E3,7.111018E2,1.4036522E3,1.0713574E2,8.206863E2,8.981763E1,2.3742188E2,3.143435E2,8.126953E0,9.8144165E1,7.7910645E1,6.268853E2,2.1210797E2,0E0,1.7893799E1,9.304636E1,1.6008313E2,7.967552E1,0E0,0E0,1.8166473E1,0E0,0E0,2.4563843E1,1.5030602E2,2.6051285E2,1.5935059E0,4.340692E1,1.756726E1,0E0,1.3626861E1,1.2406403E1,2.1157227E1,5.0151733E1,7.2856865E0,2.6194141E1,5.2006035E0,7.4835205E-1,0E0,0E0,1.9811249E1,3.651715E1,4.6102173E1,3.0447845E1,0E0,0E0,0E0,3.876419E0,0E0,0E0,0E0,0E0,0E0,0E0,0E0,0E0,0E0,0E0,0E0,0E0,0E0,0E0,0E0,0E0,0E0,0E0,0E0,0E0,0E0,0E0,0E0,0E0,0E0,0E0,0E0,0E0],"parents":[2147483647,0,0,1,1,2,2,3,3,4,4,5,5,6,6,7,7,8,8,9,9,10,10,11,11,12,12,13,13,15,15,16,16,17,17,18,18,21,21,24,24,25,25,26,26,27,27,28,28,29,29,31,31,32,32,33,33,34,34,35,35,36,36,37,37,38,38,41,41,42,42,43,43,44,44,48,48],"right_children":[2,4,6,8,10,12,14,16,18,20,22,24,26,28,-1,30,32,34,36,-1,-1,38,-1,-1,40,42,44,46,48,50,-1,52,54,56,58,60,62,64,66,-1,-1,68,70,72,74,-1,-1,-1,76,-1,-1,-1,-1,-1,-1,-1,-1,-1,-1,-1,-1,-1,-1,-1,-1,-1,-1,-1,-1,-1,-1,-1,-1,-1,-1,-1,-1],"split_conditions":[1.121E3,1.637E1,2.81882E3,4.4004E2,5.9535E2,1.977E1,3.74775E3,1.848E2,1.012E1,1.667E1,3.383E1,1.577E1,1.79284E3,3.524E1,8.3721113E-1,1E0,7.09E0,6.4666E2,6.3108E2,-2.1413688E-1,-8.5210335E-1,1.86E1,-7.815973E-1,1.0114053E0,1.29012E3,2.476E1,3.587E1,2.9E1,4.244E1,9.6E1,-4.0593275E-1,5.57E0,2.5E1,3E0,2E0,1E0,4.2E1,2E0,9.6E1,1.7965642E-1,5.863569E-1,1.51923E3,4.312E1,2.708E1,2.567E3,9.156435E-1,2.564457E-1,4.58136E-1,3.33577E3,-1.2031608E0,-2.8877813E-1,1.5419222E-1,-1.2780581E-1,-5.553865E-1,-2.1084785E-1,5.3809434E-2,3.5801867E-1,8.686066E-2,9.313548E-1,-1.1876253E-1,-3.4987614E-1,-1.7519161E-2,2.3233259E-1,-4.859365E-2,-2.6532754E-1,-4.6678534E-1,-1.2970868E-1,2.422661E-2,3.2413864E-1,-2.5664183E-1,-5.57436E-1,6.677937E-1,3.5457328E-1,-6.0548224E-2,1.5952174E-1,1.3204804E-1,2.7709886E-1],"split_indices":[19,0,19,19,19,0,19,19,0,0,0,0,19,0,0,5,0,19,19,0,0,0,0,0,19,0,0,20,0,1,0,0,20,21,20,4,1,21,1,0,0,19,0,0,19,0,0,0,19,0,0,0,0,0,0,0,0,0,0,0,0,0,0,0,0,0,0,0,0,0,0,0,0,0,0,0,0],"split_type":[0,0,0,0,0,0,0,0,0,0,0,0,0,0,0,0,0,0,0,0,0,0,0,0,0,0,0,0,0,0,0,0,0,0,0,0,0,0,0,0,0,0,0,0,0,0,0,0,0,0,0,0,0,0,0,0,0,0,0,0,0,0,0,0,0,0,0,0,0,0,0,0,0,0,0,0,0],"sum_hessian":[3.2E2,1.41E2,1.79E2,7.4E1,6.7E1,1.27E2,5.2E1,2.9E1,4.5E1,2.6E1,4.1E1,2.1E1,1.06E2,3.8E1,1.4E1,9E0,2E1,1.9E1,2.6E1,1E0,2.5E1,2.9E1,1.2E1,7E0,1.4E1,4.8E1,5.8E1,1E1,2.8E1,7E0,2E0,5E0,1.5E1,1E1,9E0,8E0,1.8E1,7E0,2.2E1,3E0,1.1E1,1.1E1,3.7E1,3.3E1,2.5E1,9E0,1E0,1.4E1,1.4E1,6E0,1E0,2E0,3E0,1.2E1,3E0,4E0,6E0,1E0,8E0,6E0,2E0,6E0,1.2E1,2E0,5E0,2.1E1,1E0,9E0,2E0,3.2E1,5E0,8E0,2.5E1,1.6E1,9E0,1E1,4E0],"tree_param":{"num_deleted":"0","num_feature":"23","num_nodes":"77","size_leaf_vector":"1"}},{"base_weights":[5.9123233E-2,-3.261597E0,2.678474E0,-7.372938E-1,-5.9977903E0,1.37017E0,5.2082777E0,-5.5867867E0,2.441447E0,-5.2742314E0,-8.9348793E-1,5.2882657E0,-1.7678894E-1,4.141315E0,7.188485E0,-9.385518E0,-3.5118294E0,5.1704926E0,3.295079E-1,-6.8861136E0,-4.064302E0,9.2290735E-1,3.9247572E0,-2.464708E0,2.2216566E0,7.3719096E0,2.6033468E0,7.6462716E-1,3.4457704E-1,-1.0311133E1,-3.7887052E-1,-6.8571724E-2,-4.5835614E0,2.3080397E0,7.8021417E0,-1.9330368E0,1.3838971E0,-2.0343009E-1,-7.014183E-1,-1.994204E0,-4.510605E0,2.1411154E0,5.9758835E0,-2.006322E0,-5.1098317E-1,4.511324E0,3.9264283E-1,7.867622E0,3.096995E-1,3.6340992E0,9.7589374E-1,-1.1000327E0,-2.743392E-1,1.4391264E-1,-1.1822023E-1,-2.2589175E-1,-5.1702E-1,4.9504623E-2,3.273315E-1,8.2517624E-2,8.485674E-1,-1.08582854E-1,-3.2655105E-1,-1.6017368E-2,2.1088663E-1,-4.5353953E-2,-2.432169E-1,-4.5863876E-1,-1.23223305E-1,3.204288E-1,3.1642422E-2,6.2614805E-1,1.41716E-1,-2.742997E-1,-1.0477336E-1,1.2751739E-1,5.289286E-1,1.6613333E-1,-9.062509E-2,8.211557E-1,2.2141305E-1,1.4572144E-1,3.8151342E-1,1.2558822E-1,2.767357E-2],"categories":[],"categories_nodes":[],"categories_segments":[],"categories_sizes":[],"default_left":[0,0,0,0,0,0,0,0,0,0,0,0,0,0,0,0,0,0,0,0,0,0,0,0,0,0,0,0,0,0,0,0,0,0,0,0,0,0,0,0,0,0,0,0,0,0,0,0,0,0,0,0,0,0,0,0,0,0,0,0,0,0,0,0,0,0,0,0,0,0,0,0,0,0,0,0,0,0,0,0,0,0,0,0,0],"id":17,"left_children":[1,3,5,7,9,11,13,15,17,19,-1,21,23,25,27,29,31,33,35,37,39,-1,41,43,45,47,49,-1,-1,51,-1,53,55,57,59,61,63,-1,-1,65,67,69,71,73,-1,75,77,79,-1,81,83,-1,-1,-1,-1,-1,-1,-1,-1,-1,-1,-1,-1,-1,-1,-1,-1,-1,-1,-1,-1,-1,-1,-1,-1,-1,-1,-1,-1,-1,-1,-1,-1,-1,-1],"loss_changes":[2.8008362E3,9.763694E2,5.8861926E2,1.1697859E3,9.738599E1,7.282709E2,9.911145E1,2.0350592E2,2.6342087E2,8.3177734E1,0E0,1.4647125E2,4.8288382E2,1.8948749E2,7.920044E0,1.2739075E1,7.718094E1,1.326518E2,6.70864E1,2.2338867E-2,2.3341125E1,0E0,8.5983765E1,4.4309998E1,1.7830548E2,3.1826172E0,4.6778564E1,0E0,0E0,1.1546936E1,0E0,1.1775451E1,1.0140533E1,1.7629982E1,4.068756E1,6.6141586E0,2.1606453E1,0E0,0E0,4.2949734E0,1.3049316E0,3.002546E1,6.7499695E0,2.5372818E1,0E0,4.108966E1,4.2702934E1,3.2073975E0,0E0,1.5341797E0,2.1972837E0,0E0,0E0,0E0,0E0,0E0,0E0,0E0,0E0,0E0,0E0,0E0,0E0,0E0,0E0,0E0,0E0,0E0,0E0,0E0,0E0,0E0,0E0,0E0,0E0,0E0,0E0,0E0,0E0,0E0,0E0,0E0,0E0,0E0,0E0],"parents":[2147483647,0,0,1,1,2,2,3,3,4,4,5,5,6,6,7,7,8,8,9,9,11,11,12,12,13,13,14,14,15,15,16,16,17,17,18,18,19,19,20,20,22,22,23,23,24,24,25,25,26,26,29,29,31,31,32,32,33,33,34,34,35,35,36,36,39,39,40,40,41,41,42,42,43,43,45,45,46,46,47,47,49,49,50,50],"right_children":[2,4,6,8,10,12,14,16,18,20,-1,22,24,26,28,30,32,34,36,38,40,-1,42,44,46,48,50,-1,-1,52,-1,54,56,58,60,62,64,-1,-1,66,68,70,72,74,-1,76,78,80,-1,82,84,-1,-1,-1,-1,-1,-1,-1,-1,-1,-1,-1,-1,-1,-1,-1,-1,-1,-1,-1,-1,-1,-1,-1,-1,-1,-1,-1,-1,-1,-1,-1,-1,-1,-1],"split_conditions":[1.121E3,1.637E1,2.67524E3,4.4004E2,4.085E1,2.385E1,3.4202E3,1.848E2,1.012E1,5.9535E2,-8.9348793E-1,1.577E1,1.86677E3,3.524E1,2.8E1,1E0,7.09E0,6.4666E2,6.3108E2,1.667E1,1.86E1,9.2290735E-1,1.48918E3,4.312E1,3.142E1,1E0,4.334E1,7.6462716E-1,3.4457704E-1,9.6E1,-3.7887052E-1,5.57E0,8.4E0,3E0,2E0,1E0,4.2E1,-2.0343009E-1,-7.014183E-1,2E0,9.6E1,1.97E1,2.384E1,1.50084E3,-5.1098317E-1,1.8E1,3.801E1,8.7E1,3.096995E-1,2.75892E3,1E0,-1.1000327E0,-2.743392E-1,1.4391264E-1,-1.1822023E-1,-2.2589175E-1,-5.1702E-1,4.9504623E-2,3.273315E-1,8.2517624E-2,8.485674E-1,-1.08582854E-1,-3.2655105E-1,-1.6017368E-2,2.1088663E-1,-4.5353953E-2,-2.432169E-1,-4.5863876E-1,-1.23223305E-1,3.204288E-1,3.1642422E-2,6.2614805E-1,1.41716E-1,-2.742997E-1,-1.0477336E-1,1.2751739E-1,5.289286E-1,1.6613333E-1,-9.062509E-2,8.211557E-1,2.2141305E-1,1.4572144E-1,3.8151342E-1,1.2558822E-1,2.767357E-2],"split_indices":[19,0,19,19,0,0,19,19,0,19,0,0,19,0,20,5,0,19,19,0,0,0,19,0,0,5,0,0,0,1,0,0,0,21,20,4,1,0,0,21,1,0,0,19,0,1,0,1,0,19,3,0,0,0,0,0,0,0,0,0,0,0,0,0,0,0,0,0,0,0,0,0,0,0,0,0,0,0,0,0,0,0,0,0,0],"split_type":[0,0,0,0,0,0,0,0,0,0,0,0,0,0,0,0,0,0,0,0,0,0,0,0,0,0,0,0,0,0,0,0,0,0,0,0,0,0,0,0,0,0,0,0,0,0,0,0,0,0,0,0,0,0,0,0,0,0,0,0,0,0,0,0,0,0,0,0,0,0,0,0,0,0,0,0,0,0,0,0,0,0,0,0,0],"sum_hessian":[3.2E2,1.41E2,1.79E2,7.4E1,6.7E1,1.19E2,6E1,2.9E1,4.5E1,5.6E1,1.1E1,3.3E1,8.6E1,4.1E1,1.9E1,9E0,2E1,1.9E1,2.6E1,2.2E1,3.4E1,7E0,2.6E1,4.4E1,4.2E1,1.2E1,2.9E1,1.6E1,3E0,7E0,2E0,5E0,1.5E1,1E1,9E0,8E0,1.8E1,1E0,2.1E1,7E0,2.7E1,1.5E1,1.1E1,3.9E1,5E0,1.8E1,2.4E1,1E1,2E0,1.7E1,1.2E1,6E0,1E0,2E0,3E0,4E0,1.1E1,4E0,6E0,1E0,8E0,6E0,2E0,6E0,1.2E1,2E0,5E0,2.6E1,1E0,9E0,6E0,1E1,1E0,2.1E1,1.8E1,4E0,1.4E1,1.2E1,1.2E1,9E0,1E0,2E0,1.5E1,8E0,4E0],"tree_param":{"num_deleted":"0","num_feature":"23","num_nodes":"85","size_leaf_vector":"1"}},{"base_weights":[5.6186695E-2,-2.4363708E0,2.949853E0,-6.523648E-1,-4.990121E0,1.8119743E0,4.976728E0,-7.197523E0,1.111609E0,-6.013654E0,-2.5925884E0,4.9591894E0,1.8628076E-1,4.12335E0,7.05947E0,-1.2283478E0,-6.0747538E0,-1.2841439E0,3.0144622E0,-5.1915493E0,-8.115849E-1,-1.1704588E0,-3.7986689E0,7.4591357E-1,3.5479462E0,-1.7660419E0,1.8080418E0,7.32295E-1,2.8127189E0,7.504114E-1,2.9277393E-1,-6.634365E-1,-3.0690485E-1,1.2602999E0,-3.0762784E0,5.328749E0,1.0292895E0,-6.2036223E0,-4.0768414E0,-1.06681824E-1,-1.5131975E0,-4.433556E0,-2.0231156E-1,1.9320844E0,6.965332E-1,-9.8091435E-1,-3.4890153E0,2.8275554E0,-2.1321723E-1,3.772143E-1,1.737464E0,3.0115464E-1,1.9050183E-2,-3.9012587E-1,-2.06369E-1,8.018832E-1,3.9869216E-1,-7.90656E-2,2.9100546E-1,-6.356117E-1,-1.8056087E-1,-2.8358194E-1,-4.6224076E-1,-3.4719467E-2,8.922068E-3,-3.927816E-2,-1.7772047E-1,-4.794894E-1,-9.5209695E-2,6.992347E-2,4.07577E-1,-3.7622422E-2,-1.6689202E-1,-3.7479812E-1,-7.086449E-2,1.8611732E-1,3.6388397E-1,4.388404E-2,-1.0470911E-1,1.1458987E-1,3.225685E-1],"categories":[],"categories_nodes":[],"categories_segments":[],"categories_sizes":[],"default_left":[0,0,0,0,0,0,0,0,0,0,0,0,0,0,0,0,0,0,0,0,0,0,0,0,0,0,0,0,0,0,0,0,0,0,0,0,0,0,0,0,0,0,0,0,0,0,0,0,0,0,0,0,0,0,0,0,0,0,0,0,0,0,0,0,0,0,0,0,0,0,0,0,0,0,0,0,0,0,0,0,0],"id":18,"left_children":[1,3,5,7,9,11,13,15,17,19,21,23,25,27,29,-1,31,33,35,37,-1,39,41,-1,43,45,47,-1,49,-1,-1,-1,-1,51,53,55,57,59,61,63,65,67,-1,69,-1,71,73,75,77,-1,79,-1,-1,-1,-1,-1,-1,-1,-1,-1,-1,-1,-1,-1,-1,-1,-1,-1,-1,-1,-1,-1,-1,-1,-1,-1,-1,-1,-1,-1,-1],"loss_changes":[2.3224412E3,7.8491626E2,3.346266E2,1.197186E3,1.5864001E2,4.953677E2,6.50918E1,5.1008667E1,3.7768982E2,4.2549072E1,3.500348E1,8.996051E1,2.0899611E2,1.471424E2,3.75E0,0E0,1.3279297E1,1.7259651E2,2.058511E2,1.7579102E1,0E0,4.2137413E0,4.5577087E0,0E0,1.1354889E2,3.716018E1,7.478812E1,0E0,2.4394821E1,0E0,0E0,0E0,0E0,2.940198E1,1.0327042E1,4.3831726E1,9.129599E1,5.95459E-1,1.1099548E0,2.1944524E-1,1.9641266E0,5.498642E0,0E0,4.2078403E1,0E0,8.52478E0,3.8242035E0,1.2043747E1,7.5280466E0,0E0,1.0389774E1,0E0,0E0,0E0,0E0,0E0,0E0,0E0,0E0,0E0,0E0,0E0,0E0,0E0,0E0,0E0,0E0,0E0,0E0,0E0,0E0,0E0,0E0,0E0,0E0,0E0,0E0,0E0,0E0,0E0,0E0],"parents":[2147483647,0,0,1,1,2,2,3,3,4,4,5,5,6,6,7,7,8,8,9,9,10,10,11,11,12,12,13,13,14,14,16,16,17,17,18,18,19,19,21,21,22,22,24,24,25,25,26,26,28,28,33,33,34,34,35,35,36,36,37,37,38,38,39,39,40,40,41,41,43,43,45,45,46,46,47,47,48,48,50,50],"right_children":[2,4,6,8,10,12,14,16,18,20,22,24,26,28,30,-1,32,34,36,38,-1,40,42,-1,44,46,48,-1,50,-1,-1,-1,-1,52,54,56,58,60,62,64,66,68,-1,70,-1,72,74,76,78,-1,80,-1,-1,-1,-1,-1,-1,-1,-1,-1,-1,-1,-1,-1,-1,-1,-1,-1,-1,-1,-1,-1,-1,-1,-1,-1,-1,-1,-1,-1,-1],"split_conditions":[1.41696E3,2.038E1,2.81882E3,2.9596E2,1.10922E3,2.854E1,3.7904E3,5.51E0,6.3505E2,4.085E1,2.598E1,1.977E1,2.0945E3,3.524E1,2.8E1,-1.2283478E0,1E0,9.82E0,1.319E1,6.68E2,-8.115849E-1,1.3E1,6.1E1,7.4591357E-1,1E0,4.114E1,3.922E1,7.32295E-1,4.244E1,7.504114E-1,2.9277393E-1,-6.634365E-1,-3.0690485E-1,6.4E0,5.136E2,9.14E0,1.01762E3,9.3E1,2.573E1,2.236E1,3E1,1E0,-2.0231156E-1,1.8515E3,6.965332E-1,1.8E1,1E0,2.40812E3,4.489E1,3.772143E-1,3.49597E3,3.0115464E-1,1.9050183E-2,-3.9012587E-1,-2.06369E-1,8.018832E-1,3.9869216E-1,-7.90656E-2,2.9100546E-1,-6.356117E-1,-1.8056087E-1,-2.8358194E-1,-4.6224076E-1,-3.4719467E-2,8.922068E-3,-3.927816E-2,-1.7772047E-1,-4.794894E-1,-9.5209695E-2,6.992347E-2,4.07577E-1,-3.7622422E-2,-1.6689202E-1,-3.7479812E-1,-7.086449E-2,1.8611732E-1,3.6388397E-1,4.388404E-2,-1.0470911E-1,1.1458987E-1,3.225685E-1],"split_indices":[19,0,19,19,19,0,19,0,19,0,0,0,19,0,20,0,5,0,0,19,0,20,1,0,17,0,0,0,0,0,0,0,0,0,19,0,19,1,0,0,1,14,0,19,0,20,18,19,0,0,19,0,0,0,0,0,0,0,0,0,0,0,0,0,0,0,0,0,0,0,0,0,0,0,0,0,0,0,0,0,0],"split_type":[0,0,0,0,0,0,0,0,0,0,0,0,0,0,0,0,0,0,0,0,0,0,0,0,0,0,0,0,0,0,0,0,0,0,0,0,0,0,0,0,0,0,0,0,0,0,0,0,0,0,0,0,0,0,0,0,0,0,0,0,0,0,0,0,0,0,0,0,0,0,0,0,0,0,0,0,0,0,0,0,0],"sum_hessian":[3.2E2,1.72E2,1.48E2,1.02E2,7E1,9.6E1,5.2E1,2.1E1,8.1E1,4.8E1,2.2E1,3.2E1,6.4E1,3.9E1,1.3E1,2E0,1.9E1,3.6E1,4.5E1,3.7E1,1.1E1,1.1E1,1.1E1,1E1,2.2E1,2.9E1,3.5E1,1E1,2.9E1,1.1E1,2E0,1.5E1,4E0,1.5E1,2.1E1,2E1,2.5E1,1.7E1,2E1,3E0,8E0,7E0,4E0,1.6E1,6E0,2.1E1,8E0,2.3E1,1.2E1,1.4E1,1.5E1,5E0,1E1,1E1,1.1E1,5E0,1.5E1,1.3E1,1.2E1,1.6E1,1E0,8E0,1.2E1,1E0,2E0,2E0,6E0,6E0,1E0,1.1E1,5E0,1.2E1,9E0,7E0,1E0,1.2E1,1.1E1,7E0,5E0,1.2E1,3E0],"tree_param":{"num_deleted":"0","num_feature":"23","num_nodes":"81","size_leaf_vector":"1"}},{"base_weights":[5.023457E-2,-3.1380017E0,1.9439876E0,-9.823577E-1,-5.008841E0,6.0613185E-1,3.8548155E0,-5.036312E0,1.7097367E0,-7.094682E0,-4.165755E0,3.791895E0,-1.4969196E0,5.7908845E0,3.016141E0,-1.053888E0,-3.6839828E0,3.7458568E0,-4.6461103E-3,-7.334382E-1,-1.6297455E-1,-3.0347855E0,-5.732245E-1,5.990822E0,2.5052183E0,-2.619167E0,7.62562E-1,6.133555E0,2.5441438E-1,1.8725009E0,6.3222275E0,2.43742E-2,-3.9035337E0,1.2835054E0,5.5184073E0,-2.6172134E-1,8.1207156E-1,-1.8738781E0,-3.5215454E0,2.776765E0,7.098615E0,-6.159676E-1,3.753333E0,-1.7821488E0,-4.089898E0,2.3173537E0,-4.2845613E-1,2.404246E0,6.3995743E0,2.6324599E0,5.440945E-1,6.696492E-1,2.5930074E-1,-4.1946623E-1,-1.7631379E-1,2.4545231E-1,8.999024E-3,5.862752E-1,1.3818245E-1,-9.534455E-3,1.5284334E-1,-2.0445128E-1,-7.373479E-2,-3.7172648E-1,-1.17337935E-1,3.1455E-1,4.665451E-2,2.8506279E-2,7.692115E-1,1.0206985E-2,-1.7185412E-1,2.2299321E-1,4.9639565E-1,-2.2793774E-1,-4.105854E-2,-5.115647E-1,-2.8603098E-1,-1.50115965E-2,2.88236E-1,3.8485814E-2,-1.1882134E-1,2.9917565E-1,6.146126E-2,1.8724671E-1,6.5470546E-1,1.8441656E-1,3.4608096E-1,-9.598332E-2,1.19636156E-1],"categories":[],"categories_nodes":[],"categories_segments":[],"categories_sizes":[],"default_left":[0,0,0,0,0,0,0,0,0,0,0,0,0,0,0,0,0,0,0,0,0,0,0,0,0,0,0,0,0,0,0,0,0,0,0,0,0,0,0,0,0,0,0,0,0,0,0,0,0,0,0,0,0,0,0,0,0,0,0,0,0,0,0,0,0,0,0,0,0,0,0,0,0,0,0,0,0,0,0,0,0,0,0,0,0,0,0,0,0],"id":19,"left_children":[1,3,5,7,9,11,13,15,17,19,21,23,25,27,29,-1,31,33,35,-1,-1,37,-1,39,41,43,45,47,-1,49,51,-1,53,55,57,-1,59,61,63,65,67,69,71,73,75,77,79,81,83,85,87,-1,-1,-1,-1,-1,-1,-1,-1,-1,-1,-1,-1,-1,-1,-1,-1,-1,-1,-1,-1,-1,-1,-1,-1,-1,-1,-1,-1,-1,-1,-1,-1,-1,-1,-1,-1,-1,-1],"loss_changes":[1.9442124E3,4.7902307E2,5.1405865E2,6.3068756E2,8.2992065E1,8.09655E2,1.1730371E2,1.3232446E2,1.2219152E2,1.0315857E1,6.764319E1,1.2079852E2,1.8710316E2,1.1096802E1,2.1501996E2,0E0,1.819815E1,6.2751343E1,4.4799965E1,0E0,0E0,1.0353546E1,0E0,4.0817505E1,1.26971085E2,5.3031586E1,4.7287514E1,5.4473267E0,0E0,4.5006287E1,3.5716553E0,0E0,4.4437256E0,1.0960135E1,4.7184143E0,0E0,1.0546342E1,6.257286E-1,4.8298645E0,3.6436386E0,4.6333313E1,8.092302E0,3.1348785E1,2.1569489E1,6.8088684E0,1.5768181E1,9.726114E0,1.3155136E0,4.2633057E-1,1.2554199E1,1.880563E1,0E0,0E0,0E0,0E0,0E0,0E0,0E0,0E0,0E0,0E0,0E0,0E0,0E0,0E0,0E0,0E0,0E0,0E0,0E0,0E0,0E0,0E0,0E0,0E0,0E0,0E0,0E0,0E0,0E0,0E0,0E0,0E0,0E0,0E0,0E0,0E0,0E0,0E0],"parents":[2147483647,0,0,1,1,2,2,3,3,4,4,5,5,6,6,7,7,8,8,9,9,10,10,11,11,12,12,13,13,14,14,16,16,17,17,18,18,21,21,23,23,24,24,25,25,26,26,27,27,29,29,30,30,32,32,33,33,34,34,36,36,37,37,38,38,39,39,40,40,41,41,42,42,43,43,44,44,45,45,46,46,47,47,48,48,49,49,50,50],"right_children":[2,4,6,8,10,12,14,16,18,20,22,24,26,28,30,-1,32,34,36,-1,-1,38,-1,40,42,44,46,48,-1,50,52,-1,54,56,58,-1,60,62,64,66,68,70,72,74,76,78,80,82,84,86,88,-1,-1,-1,-1,-1,-1,-1,-1,-1,-1,-1,-1,-1,-1,-1,-1,-1,-1,-1,-1,-1,-1,-1,-1,-1,-1,-1,-1,-1,-1,-1,-1,-1,-1,-1,-1,-1,-1],"split_conditions":[8.88E2,1.451E1,2.2113E3,3.6917E2,4.8804E2,2.385E1,3.524E1,1.1362E2,9.66E0,6.7E1,2.819E1,1.577E1,1.79284E3,8.7E1,3.74775E3,-1.053888E0,5.51E0,5.262E2,5.2105E2,-7.334382E-1,-1.6297455E-1,1.822E1,-5.732245E-1,5E0,1.2834E3,3.686E1,2.959E1,2.26094E3,2.5441438E-1,4.47E1,1E0,2.43742E-2,3.2383E2,6.4E0,1E0,-2.6172134E-1,6.6276E2,1E0,7.6966E2,1E0,8.8886E2,1E0,1.48918E3,1E0,1.34045E3,1.8515E3,3.604E1,2.734E1,2E0,3.03064E3,2.716E3,6.696492E-1,2.5930074E-1,-4.1946623E-1,-1.7631379E-1,2.4545231E-1,8.999024E-3,5.862752E-1,1.3818245E-1,-9.534455E-3,1.5284334E-1,-2.0445128E-1,-7.373479E-2,-3.7172648E-1,-1.17337935E-1,3.1455E-1,4.665451E-2,2.8506279E-2,7.692115E-1,1.0206985E-2,-1.7185412E-1,2.2299321E-1,4.9639565E-1,-2.2793774E-1,-4.105854E-2,-5.115647E-1,-2.8603098E-1,-1.50115965E-2,2.88236E-1,3.8485814E-2,-1.1882134E-1,2.9917565E-1,6.146126E-2,1.8724671E-1,6.5470546E-1,1.8441656E-1,3.4608096E-1,-9.598332E-2,1.19636156E-1],"split_indices":[19,0,19,19,19,0,0,19,0,1,0,0,19,1,19,0,0,19,19,0,0,0,0,20,19,0,0,19,0,0,15,0,19,0,6,0,19,17,19,7,19,14,19,14,19,19,0,0,20,19,19,0,0,0,0,0,0,0,0,0,0,0,0,0,0,0,0,0,0,0,0,0,0,0,0,0,0,0,0,0,0,0,0,0,0,0,0,0,0],"split_type":[0,0,0,0,0,0,0,0,0,0,0,0,0,0,0,0,0,0,0,0,0,0,0,0,0,0,0,0,0,0,0,0,0,0,0,0,0,0,0,0,0,0,0,0,0,0,0,0,0,0,0,0,0,0,0,0,0,0,0,0,0,0,0,0,0,0,0,0,0,0,0,0,0,0,0,0,0,0,0,0,0,0,0,0,0,0,0,0,0],"sum_hessian":[3.2E2,1.19E2,2.01E2,5.6E1,6.3E1,1.19E2,8.2E1,2.2E1,3.4E1,1.6E1,4.7E1,4.7E1,7.2E1,2.3E1,5.9E1,3E0,1.9E1,1.5E1,1.9E1,1.5E1,1E0,2.9E1,1.8E1,1.6E1,3.1E1,4.8E1,2.4E1,2E1,3E0,4.5E1,1.4E1,1E0,1.8E1,7E0,8E0,4E0,1.5E1,1E1,1.9E1,5E0,1.1E1,9E0,2.2E1,3.2E1,1.6E1,1E1,1.4E1,2E0,1.8E1,2.8E1,1.7E1,1.2E1,2E0,1.5E1,3E0,3E0,4E0,7E0,1E0,7E0,8E0,8E0,2E0,1.7E1,2E0,4E0,1E0,1E0,1E1,6E0,3E0,1.1E1,1.1E1,2.3E1,9E0,7E0,9E0,2E0,8E0,7E0,7E0,1E0,1E0,1E0,1.7E1,1.6E1,1.2E1,5E0,1.2E1],"tree_param":{"num_deleted":"0","num_feature":"23","num_nodes":"89","size_leaf_vector":"1"}},{"base_weights":[4.764505E-2,-2.849215E0,1.7683161E0,-8.975389E-1,-4.5429077E0,5.5254316E-1,3.5047553E0,-4.6033454E0,1.5633494E0,-6.4379435E0,-3.7771053E0,3.4484687E0,-1.3591962E0,5.2725015E0,2.7392442E0,-9.748463E-1,-3.3441544E0,2.9835613E0,-5.291709E-1,-6.646783E0,-1.5482579E-1,-2.872708E0,-5.406355E-1,5.4599113E0,2.2721252E0,-2.2592633E0,9.7712547E-1,5.577462E0,2.3533307E-1,1.6972959E0,5.7519364E0,2.3155404E-2,-3.5445366E0,1.5890157E0,5.051071E0,-2.268096E0,5.671013E-1,-7.010237E0,-2.7350685E-1,-1.7117791E0,-3.3030345E0,3.490275E0,7.2394687E-1,-5.7053566E-1,3.4092765E0,-1.5796161E0,-3.8757284E0,2.6261477E0,-2.3966892E-1,2.284032E0,5.803927E-1,2.456944E0,5.8690625E-1,6.078356E-1,2.4201405E-1,-2.498291E-1,-4.4294438E-1,2.9506776E-1,7.492832E-2,1.1319275E-1,6.168798E-1,-2.6540604E-1,-9.9744484E-2,-2.3100607E-2,1.8220139E-1,-7.4935716E-1,-2.7401525E-1,-6.537896E-2,-1.8742447E-1,-3.3920297E-1,-6.725693E-2,6.155867E-1,1.4684688E-1,9.332003E-3,-1.5896492E-1,2.025523E-1,4.5089242E-1,-2.2523586E-1,-7.529209E-2,-4.5875415E-1,-2.0434189E-1,3.538502E-1,1.5802206E-1,5.434699E-2,-1.2439092E-1,2.842167E-1,5.838814E-2,1.5233491E-1,3.2150427E-1,-8.798485E-2,1.13448106E-1],"categories":[],"categories_nodes":[],"categories_segments":[],"categories_sizes":[],"default_left":[0,0,0,0,0,0,0,0,0,0,0,0,0,0,0,0,0,0,0,0,0,0,0,0,0,0,0,0,0,0,0,0,0,0,0,0,0,0,0,0,0,0,0,0,0,0,0,0,0,0,0,0,0,0,0,0,0,0,0,0,0,0,0,0,0,0,0,0,0,0,0,0,0,0,0,0,0,0,0,0,0,0,0,0,0,0,0,0,0,0,0],"id":20,"left_children":[1,3,5,7,9,11,13,15,17,19,21,23,25,27,29,-1,31,33,35,37,-1,39,-1,41,43,45,47,49,-1,51,53,-1,55,57,59,61,63,65,-1,67,69,71,-1,73,75,77,79,81,83,85,-1,87,89,-1,-1,-1,-1,-1,-1,-1,-1,-1,-1,-1,-1,-1,-1,-1,-1,-1,-1,-1,-1,-1,-1,-1,-1,-1,-1,-1,-1,-1,-1,-1,-1,-1,-1,-1,-1,-1,-1],"loss_changes":[1.6050768E3,3.9258734E2,4.245088E2,5.270124E2,6.856152E1,6.690377E2,9.7875305E1,1.1640936E2,1.055926E2,7.0687256E0,5.5196594E1,1.01169556E2,1.5571536E2,8.23999E0,1.7858145E2,0E0,1.5150909E1,5.2521744E1,2.9881266E1,3.5741577E0,0E0,1.0832031E1,0E0,3.4318634E1,1.05386246E2,5.210501E1,4.276635E1,2.406372E0,0E0,3.7359238E1,1.6029358E0,0E0,6.5247498E0,1.3797153E1,2.806163E1,2.9527855E-1,1.0436446E1,8.36084E0,0E0,6.653938E-1,3.10289E0,4.485341E1,0E0,6.91379E0,2.5864807E1,1.9994125E1,1.01896515E1,2.9966888E0,1.0900001E1,1.1872501E0,0E0,1.4211792E1,1.7061329E1,0E0,0E0,0E0,0E0,0E0,0E0,0E0,0E0,0E0,0E0,0E0,0E0,0E0,0E0,0E0,0E0,0E0,0E0,0E0,0E0,0E0,0E0,0E0,0E0,0E0,0E0,0E0,0E0,0E0,0E0,0E0,0E0,0E0,0E0,0E0,0E0,0E0,0E0],"parents":[2147483647,0,0,1,1,2,2,3,3,4,4,5,5,6,6,7,7,8,8,9,9,10,10,11,11,12,12,13,13,14,14,16,16,17,17,18,18,19,19,21,21,23,23,24,24,25,25,26,26,27,27,29,29,30,30,32,32,33,33,34,34,35,35,36,36,37,37,39,39,40,40,41,41,43,43,44,44,45,45,46,46,47,47,48,48,49,49,51,51,52,52],"right_children":[2,4,6,8,10,12,14,16,18,20,22,24,26,28,30,-1,32,34,36,38,-1,40,-1,42,44,46,48,50,-1,52,54,-1,56,58,60,62,64,66,-1,68,70,72,-1,74,76,78,80,82,84,86,-1,88,90,-1,-1,-1,-1,-1,-1,-1,-1,-1,-1,-1,-1,-1,-1,-1,-1,-1,-1,-1,-1,-1,-1,-1,-1,-1,-1,-1,-1,-1,-1,-1,-1,-1,-1,-1,-1,-1,-1],"split_conditions":[8.88E2,1.451E1,2.2113E3,3.6917E2,4.8804E2,2.385E1,3.524E1,1.1362E2,1.043E1,6.7E1,3.065E1,1.577E1,1.86677E3,8.7E1,3.74775E3,-9.748463E-1,5.51E0,6.4666E2,5.7664E2,1E0,-1.5482579E-1,1.822E1,-5.406355E-1,1.10922E3,1.2834E3,3.854E1,2.959E1,2.26094E3,2.3533307E-1,4.334E1,1E0,2.3155404E-2,9.3E0,6.4E0,9E0,1.399E1,7.956E2,1E0,-2.7350685E-1,3E0,8.8305E2,1.012E1,7.2394687E-1,1E0,1.48918E3,1.44078E3,1.63228E3,2.744E1,3.745E1,2.734E1,5.803927E-1,2.89168E3,2.716E3,6.078356E-1,2.4201405E-1,-2.498291E-1,-4.4294438E-1,2.9506776E-1,7.492832E-2,1.1319275E-1,6.168798E-1,-2.6540604E-1,-9.9744484E-2,-2.3100607E-2,1.8220139E-1,-7.4935716E-1,-2.7401525E-1,-6.537896E-2,-1.8742447E-1,-3.3920297E-1,-6.725693E-2,6.155867E-1,1.4684688E-1,9.332003E-3,-1.5896492E-1,2.025523E-1,4.5089242E-1,-2.2523586E-1,-7.529209E-2,-4.5875415E-1,-2.0434189E-1,3.538502E-1,1.5802206E-1,5.434699E-2,-1.2439092E-1,2.842167E-1,5.838814E-2,1.5233491E-1,3.2150427E-1,-8.798485E-2,1.13448106E-1],"split_indices":[19,0,19,19,19,0,0,19,0,1,0,0,19,1,19,0,0,19,19,15,0,0,0,19,19,0,0,19,0,0,15,0,0,0,20,0,19,6,0,21,19,0,0,14,19,19,19,0,0,0,0,19,19,0,0,0,0,0,0,0,0,0,0,0,0,0,0,0,0,0,0,0,0,0,0,0,0,0,0,0,0,0,0,0,0,0,0,0,0,0,0],"split_type":[0,0,0,0,0,0,0,0,0,0,0,0,0,0,0,0,0,0,0,0,0,0,0,0,0,0,0,0,0,0,0,0,0,0,0,0,0,0,0,0,0,0,0,0,0,0,0,0,0,0,0,0,0,0,0,0,0,0,0,0,0,0,0,0,0,0,0,0,0,0,0,0,0,0,0,0,0,0,0,0,0,0,0,0,0,0,0,0,0,0,0],"sum_hessian":[3.2E2,1.19E2,2.01E2,5.6E1,6.3E1,1.19E2,8.2E1,2.2E1,3.4E1,1.6E1,4.7E1,4.7E1,7.2E1,2.3E1,5.9E1,3E0,1.9E1,2E1,1.4E1,1.5E1,1E0,3.2E1,1.5E1,1.6E1,3.1E1,5.2E1,2E1,2E1,3E0,4.5E1,1.4E1,1E0,1.8E1,1.3E1,7E0,5E0,9E0,1.3E1,2E0,1E1,2.2E1,9E0,7E0,9E0,2.2E1,3.8E1,1.4E1,8E0,1.2E1,2E0,1.8E1,2.6E1,1.9E1,1.2E1,2E0,1E1,8E0,4E0,9E0,2E0,5E0,3E0,2E0,6E0,3E0,1.1E1,2E0,2E0,8E0,2.1E1,1E0,3E0,6E0,6E0,3E0,1.1E1,1.1E1,2E1,1.8E1,9E0,5E0,3E0,5E0,7E0,5E0,1E0,1E0,1.3E1,1.3E1,5E0,1.4E1],"tree_param":{"num_deleted":"0","num_feature":"23","num_nodes":"91","size_leaf_vector":"1"}},{"base_weights":[4.4668246E-2,-2.8387141E0,1.4794462E0,-5.8455787E0,-1.8988307E0,4.0427202E-1,3.184491E0,-1.011209E0,-5.0349216E0,1.2063637E0,-3.4175203E0,3.1345928E0,-1.4437479E0,2.3799686E0,4.600499E0,-3.1638713E0,-6.0117495E-1,-1.0340058E0,2.3220127E0,-2.5254633E0,-5.315447E0,4.8127127E0,2.0861073E0,-2.4321263E0,4.7867393E-1,5.1335955E0,1.3144962E0,1.4038757E0,5.055804E0,-6.601753E-2,-3.3687067E-1,7.32502E-1,-1.8957236E0,3.7923453E0,9.079212E-1,-1.8350179E0,-3.1241578E-1,-3.9140174E-1,-6.4028037E-1,5.6350694E0,2.4804692E0,-1.5738106E-1,3.4189584E0,-1.7553853E0,-4.379377E0,1.4344531E0,-1.1288441E0,5.314897E-1,1.2976876E-1,1.8716896E0,-1.8802898E-1,1.2331772E-2,1.6931859E-1,5.4916067E0,2.21427E0,1.1996193E-1,1.769231E-2,-9.571129E-2,-2.828167E-1,2.4382833E-1,5.687708E-1,4.3497086E-2,2.0241319E-1,-2.356824E-1,-8.774075E-2,3.1504098E-1,6.66539E-1,7.792595E-2,4.488996E-1,-1.681469E-1,2.3675602E-2,1.9053963E-1,4.3202406E-1,3.598204E-2,-1.9318442E-1,-4.5618963E-1,-1.09457016E-1,2.703781E-1,8.7866075E-2,-4.342952E-2,-2.2357312E-1,8.868308E-2,2.1328714E-1,-9.232605E-2,2.9499436E-2,6.1251885E-1,3.3494174E-1,4.928818E-2,2.5213966E-1],"categories":[],"categories_nodes":[],"categories_segments":[],"categories_sizes":[],"default_left":[0,0,0,0,0,0,0,0,0,0,0,0,0,0,0,0,0,0,0,0,0,0,0,0,0,0,0,0,0,0,0,0,0,0,0,0,0,0,0,0,0,0,0,0,0,0,0,0,0,0,0,0,0,0,0,0,0,0,0,0,0,0,0,0,0,0,0,0,0,0,0,0,0,0,0,0,0,0,0,0,0,0,0,0,0,0,0,0,0],"id":21,"left_children":[1,3,5,7,9,11,13,-1,15,17,19,21,23,25,27,29,-1,31,33,35,37,39,41,43,45,47,49,51,53,-1,-1,55,57,59,61,63,-1,-1,-1,65,67,69,71,73,75,77,79,-1,-1,81,83,-1,-1,85,87,-1,-1,-1,-1,-1,-1,-1,-1,-1,-1,-1,-1,-1,-1,-1,-1,-1,-1,-1,-1,-1,-1,-1,-1,-1,-1,-1,-1,-1,-1,-1,-1,-1,-1],"loss_changes":[1.332181E3,2.9129327E2,3.9285492E2,3.5553345E1,3.9553635E2,6.7560187E2,8.360547E1,0E0,2.301654E1,7.238602E1,8.138733E1,8.497235E1,1.5317062E2,1.5461713E2,3.5109924E1,2.9045181E0,0E0,1.6610933E1,3.606137E1,1.0801743E1,8.447876E-1,2.4381104E1,1.0519635E2,6.215509E1,4.463938E1,3.5347595E0,3.4677017E1,1.6435928E0,1.8798828E1,0E0,0E0,8.2584167E-1,3.4195328E0,9.229706E0,4.9265957E0,8.425522E0,0E0,0E0,0E0,1.4841217E1,2.0420383E1,8.807891E0,2.177945E1,1.5998245E1,2.8007202E0,1.0322983E1,7.485691E0,0E0,0E0,5.8253098E0,4.533964E0,0E0,0E0,7.98645E0,1.400671E0,0E0,0E0,0E0,0E0,0E0,0E0,0E0,0E0,0E0,0E0,0E0,0E0,0E0,0E0,0E0,0E0,0E0,0E0,0E0,0E0,0E0,0E0,0E0,0E0,0E0,0E0,0E0,0E0,0E0,0E0,0E0,0E0,0E0,0E0],"parents":[2147483647,0,0,1,1,2,2,3,3,4,4,5,5,6,6,8,8,9,9,10,10,11,11,12,12,13,13,14,14,15,15,17,17,18,18,19,19,20,20,21,21,22,22,23,23,24,24,25,25,26,26,27,27,28,28,31,31,32,32,33,33,34,34,35,35,39,39,40,40,41,41,42,42,43,43,44,44,45,45,46,46,49,49,50,50,53,53,54,54],"right_children":[2,4,6,8,10,12,14,-1,16,18,20,22,24,26,28,30,-1,32,34,36,38,40,42,44,46,48,50,52,54,-1,-1,56,58,60,62,64,-1,-1,-1,66,68,70,72,74,76,78,80,-1,-1,82,84,-1,-1,86,88,-1,-1,-1,-1,-1,-1,-1,-1,-1,-1,-1,-1,-1,-1,-1,-1,-1,-1,-1,-1,-1,-1,-1,-1,-1,-1,-1,-1,-1,-1,-1,-1,-1,-1],"split_conditions":[7.956E2,3.044E2,2.2113E3,5.51E0,1.121E1,2.385E1,3.2702E3,-1.011209E0,9.7E0,4.4667E2,2.819E1,1.543E1,1.75308E3,3.255E1,8E0,2E0,-6.0117495E-1,5.4E1,8.56E0,1.822E1,3.757E1,1E0,1.29012E3,3.94E1,3.588E1,1E0,4.47E1,4E0,4.885E1,-6.601753E-2,-3.3687067E-1,1.9E1,7.78E0,5.9535E2,6.993E2,6.0116E2,-3.1241578E-1,-3.9140174E-1,-6.4028037E-1,9E0,1.01762E3,9.1264E2,1.48918E3,2.476E1,1E0,2.744E1,5E0,5.314897E-1,1.2976876E-1,2.567E3,2.67524E3,1.2331772E-2,1.6931859E-1,1E0,3.3E1,1.1996193E-1,1.769231E-2,-9.571129E-2,-2.828167E-1,2.4382833E-1,5.687708E-1,4.3497086E-2,2.0241319E-1,-2.356824E-1,-8.774075E-2,3.1504098E-1,6.66539E-1,7.792595E-2,4.488996E-1,-1.681469E-1,2.3675602E-2,1.9053963E-1,4.3202406E-1,3.598204E-2,-1.9318442E-1,-4.5618963E-1,-1.09457016E-1,2.703781E-1,8.7866075E-2,-4.342952E-2,-2.2357312E-1,8.868308E-2,2.1328714E-1,-9.232605E-2,2.9499436E-2,6.1251885E-1,3.3494174E-1,4.928818E-2,2.5213966E-1],"split_indices":[19,19,19,0,0,0,19,0,0,19,0,0,19,0,20,1,0,1,0,0,0,7,19,0,0,5,0,1,0,0,0,1,0,19,19,19,0,0,0,20,19,19,19,0,4,0,21,0,0,19,19,0,0,2,1,0,0,0,0,0,0,0,0,0,0,0,0,0,0,0,0,0,0,0,0,0,0,0,0,0,0,0,0,0,0,0,0,0,0],"split_type":[0,0,0,0,0,0,0,0,0,0,0,0,0,0,0,0,0,0,0,0,0,0,0,0,0,0,0,0,0,0,0,0,0,0,0,0,0,0,0,0,0,0,0,0,0,0,0,0,0,0,0,0,0,0,0,0,0,0,0,0,0,0,0,0,0,0,0,0,0,0,0,0,0,0,0,0,0,0,0,0,0,0,0,0,0,0,0,0,0],